%YAML:1.0
---
opencv_ml_svm:
   format: 3
   svmType: C_SVC
   kernel:
      type: LINEAR
   C: 5.0000000000000000e-01
   term_criteria: { epsilon:1.0000000000000000e-03, iterations:1000 }
   var_count: 135
   class_count: 10
   class_labels: !!opencv-matrix
      rows: 10
      cols: 1
      dt: i
      data: [ 0, 1, 2, 3, 4, 5, 6, 7, 8, 9 ]
   sv_total: 45
   support_vectors:
      - [ -7.52526820e-02, 2.50853688e-01, 5.54781333e-02,
          -3.19138505e-02, 4.78428826e-02, 2.85457764e-02,
          -2.45973080e-01, -3.08957636e-01, -6.14122637e-02,
          1.62603468e-01, 9.46837291e-02, 1.30664811e-01,
          -4.93553467e-02, -7.79512301e-02, -1.18302554e-02,
          -4.41071659e-01, -2.03321546e-01, 1.63470909e-01,
          1.59030333e-01, -5.10547645e-02, -2.90505886e-02,
          -3.66014652e-02, -2.86945105e-01, -1.93777177e-02,
          -2.58419197e-02, -5.22767715e-02, 1.59348831e-01,
          -2.12117489e-02, -2.43964419e-01, -1.11597776e-01,
          2.12115515e-03, 1.68182068e-02, 1.55907702e-02, 5.01116931e-01,
          2.03276932e-01, -2.02482566e-02, -1.06710576e-01,
          -1.36200488e-01, -1.71769962e-01, -1.13801826e-02,
          5.90852425e-02, 4.93685268e-02, 2.17210308e-01, 3.95251840e-01,
          -1.51218012e-01, 1.28523763e-02, -3.58965769e-02,
          4.52495962e-02, 2.76509803e-02, -3.49459915e-05,
          -3.86992507e-02, 7.39321113e-02, -1.64449196e-02,
          -5.07344492e-03, 2.18397267e-02, -1.12666771e-01,
          -7.21455663e-02, -3.98998670e-02, 7.64835402e-02,
          -6.82126656e-02, -5.69398478e-02, 7.30659291e-02,
          2.09776089e-02, 3.44253816e-02, -4.83126827e-02,
          2.86310315e-02, 4.00085654e-03, -7.64792413e-02,
          -1.42838070e-02, -1.46411940e-01, -4.98646088e-02,
          3.44253816e-02, -1.50408121e-02, -5.13658598e-02,
          7.10164309e-02, 4.03079716e-03, 1.71761438e-01,
          -9.73752700e-03, -2.57416088e-02, -3.02804708e-02,
          -1.50408121e-02, -1.40833348e-01, 1.04783557e-01,
          1.89414278e-01, -3.87744643e-02, -6.79751709e-02,
          3.05190645e-02, 1.00581378e-01, 3.63256596e-02,
          -1.34871274e-01, -9.37181991e-03, -9.41316858e-02,
          2.37168055e-02, 9.88381356e-03, -1.30088732e-01,
          1.24998707e-02, -5.83237559e-02, 1.42103449e-01,
          1.24914180e-02, -2.73559298e-02, -1.19629145e-01,
          -6.67835027e-02, 7.58462586e-04, 3.88306864e-02,
          -1.05014509e-02, 2.75281876e-01, 1.70407578e-01,
          -2.73559298e-02, -5.98915219e-02, -4.27987650e-02,
          8.88178824e-04, 2.98187715e-05, -1.18460050e-02,
          -2.07473454e-03, 3.49576354e-01, 1.48773462e-01,
          -5.98915219e-02, -6.74968064e-02, 9.76646170e-02,
          3.47353101e-01, -3.59785714e-04, 1.52109027e-01,
          -4.72286064e-03, -6.03729934e-02, -7.21618608e-02,
          -6.74968064e-02, -6.22072890e-02, 2.27754772e-01,
          1.10641811e-02, -2.05019899e-02, 5.68471365e-02,
          -3.51844518e-03, -8.14431012e-02, -4.20625955e-02,
          -5.98717108e-02 ]
      - [ -1.49541702e-02, 4.72062714e-02, 4.71316325e-03,
          -3.26536745e-02, -1.81373209e-02, -3.84295508e-02,
          -5.46316896e-03, -4.81531164e-03, -2.53011566e-02,
          2.05886185e-01, -1.12439059e-02, -4.75182384e-02,
          -3.37008666e-03, -2.95374602e-01, -1.37689104e-02,
          -1.05503052e-01, -3.28818075e-02, 1.83832943e-01,
          1.45014629e-01, -1.87769622e-01, -7.05240294e-03,
          -2.49735992e-02, -2.71767020e-01, -1.18592065e-02,
          2.72996966e-02, -2.49646883e-03, 1.42506778e-01,
          7.51010478e-02, -4.14430082e-01, -2.99706161e-01,
          4.05148510e-03, 1.07101716e-01, 5.27396891e-03, 3.28448296e-01,
          2.01856613e-01, 8.76913518e-02, -1.69895757e-02,
          -2.02112257e-01, -1.53789833e-01, -3.00260074e-02,
          4.54159342e-02, -3.31515521e-02, 1.16280138e-01,
          2.07575291e-01, -6.62553608e-02, -6.10313118e-02,
          6.51985500e-03, 9.87269208e-02, 4.79219295e-02,
          -3.74704152e-02, -7.85422605e-03, 4.39013876e-02,
          4.35821488e-02, -7.41813332e-02, -2.08501220e-02,
          -1.11995181e-02, -1.47124425e-01, -1.40885031e-03,
          3.64411809e-02, -7.39778765e-03, 3.29519920e-02,
          1.04421489e-01, -2.08501220e-02, 1.73975021e-01,
          -2.95534283e-01, -6.77919090e-02, 6.40905881e-03,
          -3.97475697e-02, 5.65469917e-03, 8.25975910e-02,
          2.68170275e-02, 1.23961806e-01, 8.11977014e-02,
          -1.27236813e-01, -3.49366032e-02, -9.89381503e-03,
          -1.08254179e-01, -4.18990524e-03, -9.87719521e-02,
          -3.38386111e-02, 8.98168162e-02, -7.94879124e-02,
          2.90557921e-01, 1.37931302e-01, -6.07160106e-02,
          -9.94003192e-02, -9.30348411e-02, -1.32355094e-01,
          -7.38434270e-02, -6.84343576e-02, 5.38872369e-02,
          -2.03204900e-02, -7.09475800e-02, 5.23964642e-04,
          -5.76858707e-02, -1.47851929e-02, -9.15096793e-03,
          3.69394012e-02, 1.03994915e-02, 2.96071284e-02,
          -6.19978346e-02, -2.38859490e-01, -8.87055125e-04,
          1.18353022e-02, -1.15045730e-03, 9.63552296e-02,
          4.06948216e-02, 2.96071284e-02, 5.25423475e-02,
          -2.48031139e-01, -1.09084986e-01, -6.32388459e-04,
          -1.91016346e-02, -1.58760347e-04, 1.42211229e-01,
          6.73405901e-02, 5.25423475e-02, 1.20830260e-01,
          -5.52424714e-02, -3.24004740e-02, -3.39913294e-02,
          -2.39053756e-01, -2.04361696e-02, -2.10486222e-02,
          -7.88420439e-03, 1.03272237e-01, 6.38271868e-02,
          1.23130113e-01, -2.48789974e-02, -6.60024360e-02,
          -1.90668344e-01, -3.62029895e-02, -1.09550439e-01,
          -3.13840918e-02, 9.98827964e-02 ]
      - [ -4.34039719e-02, 1.71218559e-01, 2.79863868e-02,
          -9.98051614e-02, -1.29162446e-02, -3.92961800e-02,
          -1.71961322e-01, -1.17810771e-01, 6.89151185e-03,
          1.25763416e-01, 5.68093844e-02, 8.38527754e-02,
          -2.86346138e-03, -2.73663223e-01, -1.22152828e-02,
          -3.17867845e-01, -1.71169013e-01, 1.44754291e-01,
          1.96923316e-01, 4.15220670e-02, 8.49005505e-02,
          -3.43212597e-02, -4.78671610e-01, -2.55780462e-02,
          6.11988548e-03, -1.01808682e-01, 2.00547740e-01,
          2.78846085e-01, -4.10939977e-02, -1.08697057e-01,
          -5.26374616e-02, -4.12530154e-01, -3.42688262e-02,
          2.21771657e-01, 1.02768943e-01, 2.78410167e-01, 1.13138415e-01,
          -7.05257282e-02, -2.16791734e-01, -5.97222894e-02,
          -2.56992374e-02, 9.97738820e-03, 9.38463584e-02,
          1.78347230e-01, 6.98355213e-02, 2.95630097e-03, 9.85709652e-02,
          1.60728514e-01, 6.16724929e-03, -6.32449463e-02,
          -4.50881459e-02, -4.27650474e-02, -4.83559584e-03,
          6.83469651e-03, 5.31659909e-02, -1.76993772e-01,
          -2.42186353e-01, -7.65377469e-03, -1.95114464e-02,
          -2.05016253e-03, -3.79449502e-02, 7.51731992e-02,
          5.24815246e-02, 1.90674469e-01, -6.70158491e-02,
          -9.72574763e-03, -1.65917743e-02, -1.44724861e-01,
          -1.59675572e-02, -3.27262521e-01, -3.70485067e-01,
          1.91297501e-01, 9.36233848e-02, 2.59293765e-02, 1.55364260e-01,
          -2.77754795e-02, -1.26422876e-02, -1.87787623e-03,
          -3.66952419e-01, -2.90025651e-01, 1.07385278e-01,
          8.21523555e-03, -6.47249222e-02, -4.37103212e-02,
          -4.99535119e-03, -3.77584249e-03, -2.78759170e-02,
          2.59712990e-02, 3.60796787e-02, 2.77014952e-02, 2.42598541e-02,
          -4.13951799e-02, -9.93624032e-02, -5.70912808e-02,
          -1.73116177e-01, -1.35877850e-02, 2.09814236e-02,
          1.52458161e-01, 5.94848208e-03, 1.26485424e-02,
          -1.07116707e-01, -2.98095822e-01, -2.15917043e-02,
          -5.99183701e-02, -2.31753103e-02, 1.78770080e-01,
          1.48056269e-01, 1.26485424e-02, 9.01353136e-02, 3.63497809e-02,
          -1.37753496e-02, -6.50195638e-03, -1.26901180e-01,
          -2.14666221e-02, -2.10716933e-01, -1.87457353e-01,
          9.01353136e-02, -3.03791277e-02, 1.72160462e-01,
          2.41260231e-01, -1.57504547e-02, 1.54422253e-01,
          -2.31594313e-02, -2.34140322e-01, -1.95534021e-01,
          -3.03791277e-02, -3.29476856e-02, 5.93121024e-03,
          6.82035880e-03, 4.88242041e-03, 4.96386737e-02,
          -3.14542875e-02, 1.46001270e-02, 9.37459711e-03,
          1.79320254e-04 ]
      - [ -1.65688455e-01, 2.48251438e-01, 1.02441482e-01,
          -2.77945474e-02, 1.16817458e-02, -4.62221185e-04,
          -4.52043191e-02, -2.29486879e-02, -1.61916465e-01,
          8.13379884e-02, -2.30357181e-02, 6.76069483e-02,
          -2.30067726e-02, -3.38368982e-01, -1.35534499e-02,
          -4.10952121e-02, -1.38829732e-02, 8.09164569e-02,
          1.71846017e-01, -1.40923336e-01, -1.58485800e-01,
          -1.15259727e-02, -3.97470176e-01, 1.53807079e-04,
          -1.50599405e-01, -7.11336732e-02, 1.72300085e-01,
          2.67869651e-01, -1.88697934e-01, -2.48879358e-01,
          -4.81342413e-02, -2.74879992e-01, -3.83926332e-02,
          3.79650155e-03, -1.19476495e-02, 2.72875071e-01,
          3.59860100e-02, -5.09621426e-02, -5.52611239e-02,
          -2.65435837e-02, -1.86931968e-01, -1.70199051e-02,
          2.05292091e-01, 3.26272219e-01, -1.80674411e-04,
          -6.24768995e-02, -2.31490463e-01, -3.39838825e-02,
          6.24588057e-02, 1.41986489e-01, 3.02571319e-02, 1.28384992e-01,
          9.18631032e-02, -6.56807348e-02, 2.97816508e-02,
          -8.20584595e-02, -1.19601801e-01, -2.41236743e-02,
          -1.47986813e-02, -2.51819659e-03, 9.08494182e-03,
          3.43850031e-02, 2.97816508e-02, 1.10459693e-01,
          -5.01330495e-02, -1.43576011e-01, -1.82184819e-02,
          -2.95490384e-01, 6.14777207e-04, -1.58370361e-01,
          -1.17811330e-01, 1.10459693e-01, 7.87225366e-02,
          -1.67579472e-01, -4.72882949e-02, -2.36742161e-02,
          4.30543460e-02, -2.51786709e-02, -2.11069256e-01,
          -8.38047415e-02, 8.27843547e-02, -2.00880259e-01,
          1.03897735e-01, 7.38373399e-02, 4.47689481e-02, 1.21248603e-01,
          4.34515588e-02, -6.30087778e-02, -1.41968846e-01,
          -1.81033790e-01, 3.99386790e-03, -1.61691651e-01,
          -1.42749220e-01, 3.09656817e-03, -7.20259547e-02,
          2.33440492e-02, 7.11000711e-02, 1.43857017e-01, 7.21181696e-03,
          1.12811131e-02, -8.44426975e-02, -9.82453376e-02,
          -4.79269121e-03, 2.38085585e-03, -2.28720950e-03,
          1.32290930e-01, 9.19003859e-02, 1.12811131e-02, 4.12231172e-03,
          2.38184296e-02, 2.40450837e-02, -3.21013969e-03,
          -3.80288884e-02, -1.00957986e-03, -1.98860858e-02,
          9.56197269e-03, 4.12231172e-03, 6.09843805e-02,
          -6.23192228e-02, 6.17292449e-02, -4.35144827e-03,
          3.49150188e-02, -5.19745005e-03, -2.80216426e-01,
          -1.42687142e-01, 6.09843805e-02, 3.08081298e-03,
          5.26802577e-02, 2.27260198e-02, 1.19773736e-02, 1.75552387e-02,
          9.30038560e-03, -2.60961026e-01, -8.22933465e-02,
          1.93939898e-02 ]
      - [ -8.73477310e-02, 3.58783342e-02, 4.39876802e-02,
          -9.03042499e-03, 3.79617400e-02, -2.62753088e-02,
          -6.26723934e-03, -1.21868600e-03, -8.07933956e-02,
          4.14583236e-02, -1.25036743e-02, 4.14583236e-02,
          -1.14142487e-03, -1.49615854e-01, -3.23601104e-02,
          -1.43113926e-01, -4.69731241e-02, 4.14583236e-02,
          1.04625434e-01, -8.83500502e-02, -5.89997917e-02,
          -1.24489395e-02, -2.40233377e-01, -2.88628582e-02,
          -1.09605037e-01, -1.73461176e-02, 8.37272555e-02,
          2.25898832e-01, -7.45870918e-02, -1.43496662e-01,
          -1.83132906e-02, -1.70827344e-01, -5.08445641e-03,
          -2.76559610e-02, -5.61899245e-02, 2.24270970e-01,
          1.14230640e-01, -2.07231026e-02, -2.43202392e-02,
          -2.25018654e-02, -6.39806092e-02, 1.36858812e-02,
          -7.15102442e-03, -4.47620898e-02, 1.03319131e-01,
          8.37567262e-03, -4.70204093e-02, -1.69027895e-01,
          -4.46782671e-02, -6.28951490e-02, -5.03579341e-02,
          2.88025111e-01, 9.25078019e-02, 8.89667869e-03, 1.50573878e-02,
          4.85962396e-03, -2.52470430e-02, -4.94767958e-03,
          -5.21696769e-02, -1.94483437e-02, -1.48069998e-02,
          5.83104640e-02, 1.45317260e-02, 1.43515542e-01,
          -6.16062572e-03, -2.59119384e-02, -1.20651629e-03,
          -2.90659249e-01, -6.54863194e-03, -3.01174253e-01,
          -1.32579625e-01, 1.39716938e-01, 6.02805205e-02,
          -7.56381899e-02, 4.13725860e-02, -1.29703637e-02,
          -7.54237548e-02, -1.12073505e-02, -7.45809451e-03,
          -1.53261377e-02, 3.20567824e-02, 1.98546685e-02,
          -1.30290017e-01, 3.20838094e-02, -8.60515703e-03,
          3.20838094e-02, -7.10204616e-03, -2.64983270e-02,
          1.11892940e-02, 4.35200296e-02, 1.07883535e-01,
          -1.48764268e-01, -2.06395045e-01, -3.65929715e-02,
          -4.25148048e-02, -2.09731739e-02, -3.69950347e-02,
          1.04928009e-01, 1.40876189e-01, 1.34397283e-01,
          -4.41353396e-02, -1.34503514e-01, -1.96973812e-02,
          -2.57703334e-01, -1.17521621e-02, 1.39296940e-02,
          -2.93136891e-02, 1.55225381e-01, 1.66854970e-02,
          9.42471772e-02, 2.60276347e-01, 2.01228727e-03,
          -1.44001797e-01, 1.16786023e-03, -1.30959123e-01,
          -1.24539644e-01, 1.39478743e-02, 7.63388490e-03,
          -5.69312908e-02, 4.14731055e-02, 2.85197934e-03,
          1.87942032e-02, 2.97236466e-03, -2.28101127e-02,
          -8.67112167e-03, 7.63388490e-03, 4.79585603e-02,
          -2.39185523e-02, -2.39185523e-02, 2.68461485e-03,
          -6.41906336e-02, -5.05919894e-03, -2.62834504e-03,
          1.40110555e-03, 9.93001983e-02 ]
      - [ -1.30044356e-01, 1.70006350e-01, 3.55490558e-02,
          3.29360063e-03, 2.23804247e-02, -3.30888410e-03,
          -1.21503592e-01, -5.05236499e-02, -1.36199355e-01,
          5.30784614e-02, 6.19953014e-02, 5.30784614e-02,
          -3.17418110e-03, -1.08029656e-01, -6.68446580e-03,
          -3.03925961e-01, -1.77021056e-01, 5.30784614e-02,
          9.52295586e-02, -1.40384853e-01, -7.46549442e-02,
          -1.44005399e-02, -3.62689853e-01, -1.39360279e-02,
          -8.86675715e-03, 2.66829059e-02, 9.52295586e-02,
          1.15182653e-01, -3.78056206e-02, -1.50028974e-01,
          -2.45980993e-02, -1.36569038e-01, 2.19744421e-03,
          2.22178046e-02, -6.65184930e-02, 1.25718907e-01,
          1.43380612e-01, -5.75893298e-02, -1.16858058e-01,
          -2.51668803e-02, -3.80216055e-02, 3.46553698e-02,
          1.33404015e-02, -4.64265719e-02, 1.25769094e-01,
          1.92630775e-02, -1.17219612e-01, -1.29473478e-01,
          -3.01184338e-02, -1.75923866e-03, 3.81642617e-02,
          1.34201482e-01, -1.88144017e-02, 1.29752867e-02,
          1.20456845e-01, -7.38358637e-03, -1.72231358e-03,
          -2.78509390e-02, -1.53022781e-01, -3.54207791e-02,
          3.86422090e-02, 1.42780254e-02, 1.13190033e-01, 3.01438272e-01,
          6.75308779e-02, 4.26853038e-02, -2.90220533e-03,
          -3.43507499e-01, -1.53232785e-02, -4.39635187e-01,
          -4.42098200e-01, 2.81992614e-01, 1.85802102e-01,
          -1.65032700e-01, -1.85134113e-02, -1.65080801e-02,
          -2.17825219e-01, 5.83982468e-03, -1.26751691e-01,
          -7.73053244e-02, 1.93063900e-01, 9.23782438e-02,
          -7.97106773e-02, -6.40736744e-02, -6.57814089e-03,
          -3.71364690e-02, 5.27631538e-03, 5.51711675e-03,
          1.66779924e-02, 1.21809304e-01, 2.43696966e-03,
          -1.66797981e-01, -3.36500704e-01, -5.05902655e-02,
          -6.05928712e-02, 1.60827618e-02, 5.30426428e-02,
          1.60509691e-01, 2.34294310e-02, 1.17183506e-01,
          -5.65190986e-02, -9.42784697e-02, -1.43922893e-02,
          -4.19805795e-01, -2.25215517e-02, 4.28883880e-02,
          -1.94712430e-02, 1.17183506e-01, 1.05220020e-01,
          1.23014048e-01, 1.57685667e-01, -7.71018851e-04,
          -1.96094528e-01, -1.00806160e-02, -1.61479950e-01,
          -3.27476144e-01, 1.05220020e-01, -5.78101072e-03,
          -2.33434569e-02, 8.98161232e-02, -1.14737847e-03,
          1.72244254e-02, 6.16967212e-03, -1.77639008e-01,
          -5.69326580e-02, -5.78101072e-03, -7.39586577e-02,
          1.01468816e-01, 9.78663098e-03, 1.38443499e-03,
          -1.32222306e-02, 3.58863152e-03, 1.28218615e-02,
          8.58381949e-03, -1.78307425e-02 ]
      - [ 1.55141577e-01, 2.96177387e-01, 2.25223005e-02,
          -3.11791711e-02, -1.57705188e-01, -2.33031716e-02,
          -2.34042391e-01, -9.67382416e-02, 1.61742300e-01,
          1.94318563e-01, -1.90596050e-03, -2.04262529e-02,
          -2.32823119e-02, -4.30323094e-01, -3.33173089e-02,
          -2.13525947e-02, -1.14495372e-02, 1.94238544e-01,
          7.24801496e-02, -5.06300740e-02, -7.83084258e-02,
          -1.06636817e-02, -1.24459252e-01, 6.94310991e-03,
          -9.19791088e-02, -5.65197319e-02, 7.24801496e-02,
          -2.13930421e-02, -1.47510082e-01, -3.80804777e-01,
          4.00938466e-03, 7.94719160e-02, 8.96252133e-03, 3.32396537e-01,
          1.86094493e-01, -2.13930421e-02, -7.57766962e-02,
          -1.64865419e-01, -5.44806942e-02, 1.22113246e-02,
          9.72877443e-02, 3.80174294e-02, 2.07693130e-01, 1.68887451e-01,
          -1.13740958e-01, -1.06366411e-01, 3.54704633e-02,
          7.43688419e-02, 3.82323340e-02, -5.70198409e-02,
          3.52151096e-02, -3.52721731e-03, 9.99674872e-02,
          -1.09639063e-01, 3.66413454e-03, -1.80186331e-01,
          -2.43587777e-01, 1.25957117e-03, 1.61366060e-01,
          7.92630762e-03, 2.07253113e-01, 2.01079518e-01, 3.66413454e-03,
          9.82150361e-02, -2.93343365e-01, -2.12308362e-01,
          7.37643288e-03, -2.43339390e-02, -4.06748243e-03,
          7.30861276e-02, 1.84413269e-02, 9.82150361e-02, 1.25639085e-02,
          -5.95095009e-02, -1.05218403e-02, 1.79652241e-03,
          7.71366358e-02, 8.39859154e-03, -5.38262427e-02,
          -5.54734766e-02, 1.25639085e-02, -2.42628694e-01,
          1.13598399e-01, 6.89653829e-02, 3.29340249e-02, 1.84506804e-01,
          2.42680106e-02, -9.86634642e-02, 2.09153593e-02,
          -1.79933637e-01, 8.80613253e-02, -1.51255995e-01,
          -1.59071639e-01, -5.66732995e-02, -3.57150845e-02,
          3.15317772e-02, -6.10456541e-02, 1.63195461e-01,
          1.02253810e-01, 7.18028247e-02, -3.05959374e-01,
          -2.51482308e-01, -2.03509033e-02, -6.93554804e-02,
          -5.20416675e-03, 2.96920121e-01, 1.72236338e-01,
          7.18028247e-02, 2.86782477e-02, -2.01218858e-01,
          -2.00647280e-01, -3.42588103e-03, -4.46778722e-02,
          -8.13636836e-03, 2.91268736e-01, 1.05632961e-01,
          2.86782477e-02, 6.54153712e-03, 1.62720159e-02, 8.21450129e-02,
          -1.38438847e-02, -9.96822491e-02, -2.39891117e-03,
          -9.86520723e-02, -4.17209975e-02, 6.54153712e-03,
          -6.22077212e-02, 1.86791673e-01, 1.44704292e-02,
          2.26239354e-04, -3.36098224e-02, -3.70273541e-04,
          -7.97805935e-03, -3.26806633e-03, -2.62676291e-02 ]
      - [ -1.28187090e-01, 7.56412745e-02, 3.92221585e-02,
          -1.54517889e-02, 4.01156098e-02, -2.19489839e-02,
          -3.92586254e-02, -1.45259257e-02, -1.61394179e-01,
          7.49660656e-04, 2.83976525e-01, 7.27075189e-02, 3.54571990e-03,
          -5.40587045e-02, -1.74005385e-02, -4.19714212e-01,
          -1.71659946e-01, 7.49660656e-04, 1.27684116e-01,
          -1.15034379e-01, -2.95603350e-02, -3.07408050e-02,
          -4.00778502e-01, 2.34085880e-03, -9.74017605e-02,
          -5.38203046e-02, 1.27684116e-01, 1.05747869e-02,
          -1.65869623e-01, -2.90071398e-01, 6.06606435e-03,
          -9.99046117e-02, -1.19051691e-02, 2.63836414e-01,
          1.84955046e-01, 1.05747869e-02, 7.05274493e-02,
          -2.18403712e-03, 4.41884398e-02, -7.39234388e-02,
          -3.29608917e-02, -3.31187844e-02, -1.64590571e-02,
          5.23175187e-02, -8.19545798e-03, 1.55539978e-02,
          -5.06266998e-03, 4.87338118e-02, -3.41531746e-02,
          -3.85629274e-02, 8.57932772e-03, 3.33081931e-02,
          -1.17782988e-02, 1.54687734e-02, 9.12107825e-02,
          -7.34097660e-02, -2.03819230e-01, -3.94393168e-02,
          -1.24118418e-01, -2.73694787e-02, -4.09696847e-02,
          4.90462501e-03, 9.83445048e-02, 2.69502640e-01, 1.70604829e-02,
          1.88331977e-02, -6.68523312e-02, -5.54073334e-01,
          -7.69894868e-02, -3.07120025e-01, -2.85718739e-01,
          2.57167220e-01, 6.99635074e-02, 2.28177980e-02,
          -7.84419775e-02, -1.33905094e-02, -2.96487492e-02,
          -3.34275537e-03, -2.49622226e-01, -6.60040379e-02,
          6.70548528e-02, 6.71010166e-02, 2.82639563e-02,
          -6.58114776e-02, -1.22582410e-02, -6.05697744e-02,
          -4.11828719e-02, 2.25159861e-02, 2.29159556e-02,
          1.22012384e-02, 6.77329749e-02, -5.01798559e-03,
          -1.38056474e-02, -2.34951563e-02, -1.07086860e-02,
          -2.66593602e-02, -3.39304917e-02, -2.10998058e-02,
          7.62456581e-02, 1.06910944e-01, -1.99052021e-01,
          -4.14048761e-01, -1.69865806e-02, -2.41081342e-01,
          -1.34836193e-02, 9.47718397e-02, 9.73956287e-02,
          1.06910944e-01, 1.31341681e-01, 2.33926643e-02,
          -4.12447080e-02, -2.77126599e-02, -4.17341083e-01,
          -1.36586092e-02, -2.18703225e-01, -1.63919598e-01,
          1.31341681e-01, -5.16748652e-02, 1.79777294e-01,
          1.17245659e-01, -6.65734103e-03, 7.87946805e-02,
          -4.38222615e-03, -2.02962786e-01, -8.72264132e-02,
          -5.16748652e-02, 3.00341956e-02, -5.01822010e-02,
          -1.84547734e-02, 6.13524625e-03, 5.25691584e-02,
          -1.58086829e-02, 8.24608654e-03, 1.48597164e-02,
          5.50653413e-02 ]
      - [ -6.72466382e-02, 6.26108050e-02, 2.64820587e-02,
          -3.73519473e-02, 3.63157480e-03, -5.97778782e-02,
          -6.08562976e-02, -1.97679121e-02, -5.55957109e-02,
          1.05602872e-02, 1.68362200e-01, 9.56147239e-02,
          -2.14389078e-02, -6.90091997e-02, -2.07141098e-02,
          -3.64044160e-01, -1.64778113e-01, 1.05602872e-02,
          7.90476650e-02, 2.86291480e-01, 5.49062908e-01,
          -2.51349416e-02, -5.61509728e-01, -6.84136059e-03,
          -2.16925398e-01, -3.88900459e-01, 7.90476650e-02,
          3.43719363e-01, -1.13187814e-02, -4.41562524e-03,
          -5.12948148e-02, -4.79877561e-01, -4.33150493e-03,
          -1.41990092e-02, -8.68424773e-02, 3.72166932e-01,
          1.27049714e-01, -1.39142156e-01, -7.87021816e-02,
          -2.79099438e-02, -4.80291918e-02, 6.16271533e-02,
          2.36149073e-01, 1.82430372e-01, 7.02634975e-02, 4.72518392e-02,
          5.97361848e-02, 7.73132220e-02, -1.16867952e-01,
          -2.04048261e-01, -9.62198079e-02, 7.93248340e-02,
          1.26928821e-01, 3.19092609e-02, 2.44685030e-03, 7.75629878e-02,
          3.62317041e-02, -6.58667013e-02, -1.74625620e-01,
          -4.58411314e-02, -6.27298281e-03, 1.26549631e-01,
          5.76492341e-04, 2.34873563e-01, -2.80741841e-01,
          -2.59382188e-01, 6.10717107e-03, -3.68060350e-01,
          -4.43490408e-03, -3.47471088e-01, -1.51055142e-01,
          2.34873563e-01, 5.55014499e-02, -3.41944955e-02,
          6.22727070e-03, 4.35627811e-03, 3.54339071e-02, 2.01842152e-02,
          -1.73369378e-01, -1.47145733e-01, 6.05054349e-02,
          -2.75332659e-01, -1.33086920e-01, 2.71066260e-02,
          -3.02338670e-03, 1.13269247e-01, -2.39449777e-02,
          1.46354437e-01, 3.88839692e-02, -2.48455599e-01,
          1.13756672e-01, -1.65338293e-02, -3.80711332e-02,
          -8.02785531e-02, -2.22709686e-01, -6.54471070e-02,
          -2.90639093e-03, 1.74019169e-02, 1.38190016e-01,
          5.76298088e-02, -1.16224084e-02, -9.02667344e-02,
          -1.01679321e-02, -2.00734898e-01, -1.33436061e-02,
          -6.15938986e-03, -3.03203408e-02, 5.76298088e-02,
          6.73663616e-02, -3.01606476e-01, -1.94576636e-01,
          5.94410463e-04, -1.49526566e-01, -1.93747450e-02,
          3.01699996e-01, 1.21211991e-01, 6.73663616e-02,
          -2.48801671e-02, 4.47991164e-03, 1.06178015e-01,
          -1.62303858e-02, -5.94622642e-02, -1.21193510e-02,
          -1.93338152e-02, -1.44522889e-02, -3.52965202e-03,
          -1.40036181e-01, 1.91243775e-02, 1.11142416e-02,
          4.10940917e-03, 1.74382120e-01, -1.13100540e-02,
          3.16588581e-02, 1.58977192e-02, -3.86565477e-02 ]
      - [ 7.89365694e-02, -2.02710107e-01, -7.97503144e-02,
          -3.37936617e-02, -2.35706777e-03, -4.57216538e-02,
          1.25696838e-01, 1.34354621e-01, 4.73990999e-02,
          -2.54761893e-02, -1.39735162e-01, -2.87396181e-02,
          6.79023191e-02, -9.37814415e-02, 1.83907745e-03,
          1.53159648e-01, 1.03885777e-01, -2.73954403e-02,
          6.49325037e-03, -2.83513665e-01, -9.01812464e-02,
          1.75019242e-02, 1.59670301e-02, 7.12992763e-03, 2.08742633e-01,
          1.28227264e-01, 1.12053314e-02, 4.15754244e-02,
          -1.20163485e-01, -4.20684293e-02, 1.42603545e-04,
          1.27611488e-01, -6.90780208e-03, -8.00891779e-03,
          -1.28917517e-02, 3.19148488e-02, 2.90654879e-02,
          -8.83818045e-03, 3.62338610e-02, -3.91341150e-02,
          9.53405164e-03, -7.87691846e-02, -1.37655184e-01,
          -2.21542120e-02, 3.40879261e-02, -2.03276016e-02,
          1.17571160e-01, -2.25560386e-02, -8.55705701e-03,
          -2.81877462e-02, 1.82636902e-02, -1.62712276e-01,
          -6.58661053e-02, -7.31159991e-04, -1.98128410e-02,
          -3.29886116e-02, -1.51121378e-01, 4.91895974e-02,
          -7.29351714e-02, 8.87509808e-02, 1.20953262e-01,
          9.54649225e-02, -1.82231553e-02, 1.94828421e-01,
          -3.32974255e-01, -2.56634712e-01, 7.33086094e-03,
          4.95304130e-02, 1.61079913e-02, 3.16413313e-01, 1.01091400e-01,
          1.26393259e-01, 8.38110447e-02, -2.04589605e-01,
          1.72378775e-02, -2.11457699e-03, -2.29784787e-01,
          2.09563784e-02, 1.02435492e-01, 4.25918624e-02, 7.64474794e-02,
          -8.78501777e-03, 1.61420405e-01, 3.60801890e-02,
          -4.46122810e-02, -3.17364819e-02, -5.94796091e-02,
          1.36779789e-02, 1.55105200e-02, 1.49227446e-02,
          -2.02296246e-02, 1.70381442e-01, 8.34519938e-02,
          1.07825389e-02, 4.94469795e-03, -1.11353649e-02,
          -5.46111465e-02, -1.15972653e-01, -2.02296246e-02,
          4.49032821e-02, 8.72909650e-02, -1.55349895e-01,
          1.14555028e-03, 3.15759480e-02, 1.72072370e-02,
          -2.13767990e-01, -3.65104116e-02, 4.49032821e-02,
          9.74719003e-02, -2.83797562e-01, -1.19968519e-01,
          2.54576938e-04, -1.65890492e-02, 1.75461173e-04,
          2.88445707e-02, 7.14654243e-03, 9.74719003e-02, 2.08349913e-01,
          -2.77897835e-01, -1.89081207e-01, -6.15428062e-03,
          -3.13278526e-01, -4.97764535e-03, 7.62575045e-02,
          6.46043420e-02, 1.86048895e-01, 1.09756611e-01, 8.58672634e-02,
          -2.35715136e-02, -5.87413907e-02, -2.46082231e-01,
          -9.04131494e-03, -1.38886496e-02, -8.81692395e-03,
          1.01958334e-01 ]
      - [ 1.43086970e-01, -1.55343726e-01, -1.16034836e-01,
          -7.86977038e-02, -1.74313579e-02, -6.80394992e-02,
          2.19361335e-02, 3.80132943e-02, 1.58708557e-01,
          -7.32138678e-02, -6.22913390e-02, 1.21307679e-01,
          7.11005107e-02, -1.86113760e-01, 7.56406924e-03,
          1.57676175e-01, 2.61177104e-02, -5.33644669e-02,
          -1.03090666e-01, 9.70889926e-02, 6.69389144e-02,
          1.89951882e-02, -1.14695773e-01, -1.18983006e-02,
          1.21146470e-01, 1.10050375e-02, -1.05088003e-01,
          1.14865445e-01, 3.19485784e-01, 1.31852642e-01,
          -6.81306347e-02, -2.94612914e-01, -6.20691627e-02,
          -2.16259837e-01, -5.91599196e-02, 1.11450456e-01,
          2.41264135e-01, 1.36669397e-01, -1.01315394e-01,
          -6.09954782e-02, -2.31435802e-02, -6.52800277e-02,
          -3.45648855e-01, -1.96855396e-01, 2.52941191e-01,
          4.89891320e-02, 2.28225648e-01, 1.85761541e-01,
          -5.66419289e-02, -3.84521931e-02, -3.85371819e-02,
          -3.13534319e-01, -1.73219815e-01, 7.78687745e-02,
          1.19778505e-02, -8.56891870e-02, -1.17439061e-01,
          5.22220246e-02, -3.88840139e-02, 8.15649927e-02,
          9.18237045e-02, 3.83734554e-02, 1.28399162e-02, 2.28203326e-01,
          -4.89054210e-02, -1.83794692e-01, -3.63090560e-02,
          -1.80075124e-01, -1.25695402e-02, -1.47111148e-01,
          -3.15599084e-01, 2.29357123e-01, 1.14926651e-01,
          1.27358548e-03, 2.18379498e-01, -5.28680608e-02,
          -2.80299991e-01, 2.09272597e-02, -2.23928437e-01,
          -2.17634588e-01, 1.40412912e-01, 1.71207085e-01,
          -2.99384624e-01, -2.39003748e-01, -4.36641611e-02,
          9.72913727e-02, -3.29060331e-02, 1.51046112e-01,
          7.78206065e-02, 2.02513888e-01, 2.06215424e-03, 1.25494733e-01,
          5.98624013e-02, -1.81318820e-02, -8.34887922e-02,
          -1.07646885e-03, -2.73927189e-02, -4.89587002e-02,
          2.06215424e-03, 1.12464735e-02, 6.48711696e-02,
          -7.33435452e-02, -3.06231552e-03, 3.88111360e-02,
          4.55752062e-03, -1.00864731e-01, -5.36482744e-02,
          1.12464735e-02, 1.32744491e-01, 8.62549916e-02, 4.42934483e-02,
          -6.72589429e-03, -1.36049092e-01, -2.24871133e-02,
          -4.75928783e-01, -3.26747328e-01, 1.32744491e-01,
          3.10392901e-02, -3.06422133e-02, -7.29493350e-02,
          -3.19315935e-03, 2.04509329e-02, 1.25835119e-02,
          -5.92193194e-02, -4.77674752e-02, 3.10392901e-02,
          1.31356027e-02, -2.09563017e-01, -3.28141712e-02,
          -9.31333099e-03, 7.30959028e-02, 1.22401267e-02,
          2.36525044e-01, 1.24341302e-01, 1.37136504e-02 ]
      - [ -1.33853763e-01, -6.04780242e-02, 1.51221594e-02,
          2.10800339e-02, 7.52456486e-02, -4.80408315e-03,
          1.72563016e-01, 1.20707430e-01, -1.50400668e-01,
          -8.85333270e-02, -2.19675869e-01, -3.32149416e-02,
          8.55355784e-02, -1.12491593e-01, 1.71050597e-02,
          3.73718768e-01, 2.12429315e-01, -9.43741202e-02,
          -1.42158911e-01, -1.37605563e-01, -1.67063344e-02,
          6.49024323e-02, 2.07254551e-02, 4.52951267e-02, 9.49297994e-02,
          1.50028793e-02, -1.45719722e-01, 1.15479976e-01,
          1.38065279e-01, -3.56491245e-02, -5.60485385e-02,
          -1.47250056e-01, -4.14907746e-02, -4.54239309e-01,
          -3.25984925e-01, 1.13813013e-01, 6.46899045e-02,
          1.83554903e-01, 2.77120501e-01, -3.15547665e-03,
          -1.56052753e-01, -1.95843913e-02, -4.49164547e-02,
          2.45666336e-02, 7.54316822e-02, -1.91761747e-01,
          -2.30621681e-01, -2.48791985e-02, 7.76129216e-02,
          1.49440229e-01, 7.84355998e-02, 1.07229456e-01, 7.68178105e-02,
          -1.76264644e-01, 4.25291099e-02, -1.14641629e-01,
          -2.68063337e-01, 2.86130682e-02, -5.91632500e-02,
          1.06475681e-01, -3.54992263e-02, 2.97275688e-02,
          4.30248566e-02, 1.53961480e-01, 8.96292832e-03,
          -2.17489630e-01, -3.66334580e-02, -3.36732894e-01,
          1.45656057e-02, -1.22981593e-01, -1.91115662e-01,
          1.53961480e-01, 1.64586097e-01, -2.16657773e-01,
          -2.17025399e-01, -1.73053741e-02, -7.07005337e-02,
          4.14052047e-03, -3.40679258e-01, -1.45263597e-01,
          1.66851789e-01, -1.20334085e-02, 3.41298245e-02,
          -1.62713155e-01, 4.75306958e-02, 2.46834725e-01,
          4.58002761e-02, -1.87051728e-01, -3.99798185e-01,
          -1.25146867e-03, 3.68726104e-02, -1.98924169e-02,
          -1.33051708e-01, 6.91838935e-03, -1.31280169e-01,
          2.06181351e-02, 1.43558919e-01, 6.03442229e-02, 1.81917120e-02,
          -9.63520538e-03, 8.41755942e-02, -2.24763099e-02,
          -1.03646424e-02, -1.09661885e-01, 1.00821871e-02,
          -1.14734396e-01, 3.02065667e-02, -9.63520538e-03,
          1.44898728e-01, -1.58731602e-02, -1.70159489e-01,
          -4.59121866e-03, -9.53525007e-02, -7.63390155e-04,
          -4.59734201e-01, -1.52052000e-01, 1.44898728e-01,
          7.20115528e-02, -1.83506310e-01, -2.08115250e-01,
          3.40395933e-03, -2.91849896e-02, 2.44177785e-03,
          -6.11092187e-02, -3.11424909e-03, 7.20115528e-02,
          6.98590651e-02, -1.23071469e-01, 2.31373645e-02,
          6.68561831e-03, -3.68149839e-02, 6.66011125e-02,
          -2.01565474e-01, -5.11428975e-02, 6.98590651e-02 ]
      - [ -5.01958467e-02, -9.00766551e-02, 5.16461842e-02,
          2.93028373e-02, 5.16461842e-02, -7.48636434e-03,
          7.83797354e-02, 4.78495359e-02, -5.98540716e-02,
          -9.62254778e-02, -3.83740254e-02, 3.02513558e-02,
          6.68556392e-02, 3.86263914e-02, 1.07270433e-03, 8.54590312e-02,
          2.03999933e-02, -9.87119228e-02, -6.27509654e-02,
          -2.12138742e-02, 3.24896611e-02, 2.13144161e-02,
          6.08911775e-02, 2.05965526e-03, -5.52184321e-03,
          -4.00212221e-02, -7.34900013e-02, 1.42632857e-01,
          9.65396091e-02, -4.23854925e-02, -1.56796873e-02,
          -1.00741111e-01, -1.33995721e-02, -2.65074074e-01,
          -1.77815199e-01, 1.38830617e-01, 1.70001194e-01,
          8.32458958e-02, 7.86722824e-02, -1.49320150e-02,
          -3.42416018e-02, -2.27856599e-02, -1.92201018e-01,
          -2.17812076e-01, 1.93963856e-01, -2.69883033e-02,
          8.30876306e-02, 2.22417917e-02, 6.77274028e-03,
          -9.23655704e-02, -9.72304400e-03, 9.27686542e-02,
          5.35845235e-02, -9.43286251e-03, -4.15559150e-02,
          7.74286017e-02, 3.53853814e-02, 3.49511169e-02,
          -4.69088368e-02, 4.89469320e-02, -1.84396317e-03,
          2.82037817e-02, -4.12369519e-02, 8.59018788e-02,
          8.72433111e-02, 7.91735351e-02, -1.11964708e-02,
          -1.80357590e-01, -7.24584144e-03, -7.55626261e-02,
          -1.27407506e-01, 7.61435553e-02, 5.05675934e-02,
          -2.46116705e-02, 1.12244859e-03, -1.43783614e-02,
          -1.81859568e-01, -7.22256443e-03, -4.97924760e-02,
          -1.68471187e-02, 3.77560109e-02, 1.31371170e-01,
          -1.16479866e-01, -1.27145499e-01, 6.86006248e-03,
          -6.96318410e-03, -1.23357829e-02, 2.26528030e-02,
          4.75502573e-03, 1.32916614e-01, 1.25930354e-01, 1.50533475e-03,
          -1.56754196e-01, -3.59493680e-02, -1.12450749e-01,
          -1.29735349e-02, 1.77258831e-02, 7.38865510e-02,
          1.27292842e-01, 1.75432160e-01, 6.05945550e-02,
          -7.95280710e-02, -1.78173464e-02, -2.50863284e-01,
          -3.65665625e-03, -9.79647711e-02, -6.95915371e-02,
          1.85005233e-01, 6.57690987e-02, 8.48199874e-02, 1.45704627e-01,
          -9.31740971e-04, -1.54871926e-01, -3.61316558e-03,
          -2.20310375e-01, -1.88454360e-01, 6.57690987e-02,
          5.30941924e-03, -8.23464096e-02, -6.57121763e-02,
          1.00192986e-03, -1.70760620e-02, -7.40069314e-04,
          6.50807917e-02, 3.66308466e-02, 5.30941924e-03, 7.86922053e-02,
          -1.00835808e-01, -2.36464199e-02, 1.80723215e-03,
          -1.06476739e-01, 1.19871972e-02, 7.49771893e-02,
          2.49401219e-02, 8.10035467e-02 ]
      - [ 3.89905795e-02, -8.73482749e-02, -5.88314701e-03,
          1.13621950e-02, -6.22291770e-03, -8.90227384e-04,
          8.01786855e-02, 9.84975249e-02, 2.34536882e-02,
          -1.13007247e-01, -7.56419301e-02, 3.59788761e-02,
          7.11945072e-02, 1.74064692e-02, 1.74041055e-02, 1.63891286e-01,
          5.30437157e-02, -1.14492752e-01, -9.53203887e-02,
          -6.59255907e-02, -1.68775916e-02, 4.32074107e-02,
          -5.19038364e-03, 1.53475292e-02, 7.81768635e-02,
          7.13583007e-02, -9.64046940e-02, -1.14218676e-02,
          2.57472456e-01, 7.00092539e-02, -1.77927557e-02,
          -3.66033949e-02, -2.86536501e-03, -2.75036335e-01,
          -2.06577405e-01, -6.70006406e-03, 1.55893981e-01,
          6.89261034e-02, 5.97525425e-02, -2.50743218e-02,
          6.34826580e-03, -1.33350613e-02, -2.20089659e-01,
          -2.75083482e-01, 1.63672239e-01, -2.65644584e-02,
          6.95150495e-02, -2.05834694e-05, -2.50340831e-02,
          -5.90743637e-03, 2.57536210e-02, -1.24356464e-01,
          -6.95228949e-02, -1.20027130e-02, 5.37058488e-02,
          2.97756419e-02, -2.21441258e-02, 2.12509036e-02,
          -1.74278140e-01, 2.82910410e-02, 1.19975895e-01,
          -9.42258257e-03, 5.57415560e-02, 1.97791755e-01,
          1.14342712e-01, 5.71931005e-02, 2.38230685e-03,
          -1.75668880e-01, 1.48199508e-02, -1.06323183e-01,
          -2.94259816e-01, 1.93883359e-01, 1.30401701e-01,
          -6.24312200e-02, -3.16688009e-02, -9.55131557e-03,
          -2.34244809e-01, 2.21758634e-02, -7.53315836e-02,
          -1.04789160e-01, 1.36172473e-01, 1.42035514e-01,
          -1.48221686e-01, -1.71351045e-01, -6.64132833e-03,
          2.81082205e-02, -1.35202790e-02, 6.09847233e-02,
          2.36491431e-02, 1.50843158e-01, 1.55122196e-02, 6.18400872e-02,
          -8.09055418e-02, -2.37506703e-02, -6.57531992e-02,
          7.47412769e-03, 4.72753355e-03, -5.08889556e-02,
          1.56098204e-02, 1.18696637e-01, 9.23346803e-02,
          -2.42217109e-02, -9.87857487e-03, -2.93570131e-01,
          -7.73176644e-03, -2.37689659e-01, -1.80333972e-01,
          1.18685037e-01, 1.23426840e-01, 9.50343683e-02, 6.64578080e-02,
          -6.15042914e-03, -1.28169060e-01, -3.42042861e-03,
          -3.22363436e-01, -3.38039666e-01, 1.23426840e-01,
          1.86569635e-02, -7.79724717e-02, -2.91124042e-02,
          -2.63817748e-03, -1.17992721e-02, 8.11666716e-03,
          -8.54489803e-02, 2.21822429e-02, 1.86569635e-02,
          7.82995950e-03, -5.47873750e-02, -1.27265509e-02,
          -2.15824554e-03, -2.21825368e-03, 2.54819319e-02,
          8.91323164e-02, 3.82106043e-02, 7.82995950e-03 ]
      - [ 2.18176559e-01, -2.02006679e-02, -2.33314946e-01,
          -3.45335715e-02, -8.81108195e-02, -3.60572562e-02,
          6.94295019e-02, 1.24436781e-01, 2.05414414e-01, 1.88172255e-02,
          -1.23929881e-01, -1.75781339e-01, 1.93343312e-02,
          -2.09150419e-01, -1.40058696e-02, 4.37748879e-01,
          2.02070415e-01, 1.81954540e-02, -3.35380398e-02,
          -1.83706656e-01, -1.63109928e-01, 3.55531089e-02,
          4.35823575e-02, 1.75209753e-02, 1.64562151e-01, 6.85067475e-02,
          -3.23746018e-02, -4.87948842e-02, 9.54891741e-02,
          -8.30390453e-02, 5.22853900e-03, 1.82812139e-01,
          -8.46711046e-04, -4.20557149e-02, -3.49063613e-02,
          -4.87948842e-02, -5.74353598e-02, 7.98046440e-02,
          2.10809678e-01, -6.39701146e-04, 3.85541022e-02,
          -6.86860312e-06, 4.28519063e-02, -4.85091470e-02,
          -4.69917394e-02, -8.43854323e-02, 1.20374121e-01,
          -5.28763011e-02, -6.94788620e-03, 9.97457504e-02,
          3.78836840e-02, -1.66068524e-01, -1.33146653e-02,
          -5.41657433e-02, 1.00776926e-02, -1.97722286e-01,
          -3.05750281e-01, 5.03435060e-02, 1.56209648e-01,
          9.36738998e-02, 1.23162024e-01, 8.88587236e-02, 1.16673782e-02,
          9.52580944e-02, -3.38311434e-01, -3.57828587e-01,
          1.00193210e-02, 1.15828171e-01, 1.39164897e-02, 3.06241632e-01,
          9.57140699e-02, 9.52580944e-02, 4.41506803e-02,
          -1.29956126e-01, -1.19513266e-01, -5.23884082e-04,
          4.00124788e-02, 2.36677323e-02, 1.21658228e-01, 3.27807218e-02,
          4.41506803e-02, -1.16039611e-01, 6.87490553e-02,
          -3.41377892e-02, 3.30038108e-02, 1.45058438e-01,
          3.95466648e-02, 1.47458270e-01, 8.48757029e-02,
          -9.79922339e-02, 7.71419257e-02, 3.59582119e-02,
          -1.33476317e-01, -3.11215334e-02, 8.96179676e-02,
          -2.33939802e-03, -7.87863806e-02, -5.39844297e-03,
          8.21669772e-02, 9.85077769e-02, -1.51193008e-01,
          -1.49830490e-01, -1.98198576e-02, -1.32680655e-01,
          4.96966345e-03, -2.74952650e-02, -2.49993801e-02,
          9.85077769e-02, 8.40832070e-02, -2.23131061e-01,
          -1.65796980e-01, -9.43217147e-03, -3.71308364e-02,
          -7.08512869e-03, 3.24496180e-02, 2.98011512e-03,
          8.40832070e-02, 1.40096188e-01, -2.46878982e-01,
          -3.11745703e-01, -1.61032192e-02, -2.54439473e-01,
          7.35629257e-03, 5.81306852e-02, 5.21062538e-02, 1.40096188e-01,
          1.57780552e-04, 2.10751835e-02, 1.81810313e-03, 5.88612817e-03,
          -4.79027629e-02, 1.29178436e-02, 3.68662141e-02,
          4.91253473e-02, 1.57780552e-04 ]
      - [ 3.54891643e-02, -2.75165409e-01, -8.01867098e-02,
          3.32726426e-02, 2.80710254e-02, -8.23102798e-03,
          2.54989296e-01, 1.93507567e-01, -6.43262193e-02,
          -1.79757550e-01, 1.39245018e-01, 1.96592957e-02,
          1.04861937e-01, 1.92104176e-01, 2.68550552e-02,
          -1.19460039e-02, -5.88004366e-02, -1.81742728e-01,
          -4.73501235e-02, -1.59299269e-01, -7.93418735e-02,
          4.17970493e-02, -7.93740824e-02, 6.26289891e-03,
          1.43003399e-02, 1.48632796e-02, -4.88337539e-02,
          -7.09019378e-02, 1.82472259e-01, 6.18885644e-03,
          -1.24716042e-02, -1.23203218e-01, -2.24853158e-02,
          -1.12697624e-01, -3.90709192e-02, -7.32445046e-02,
          9.98096541e-02, 1.54987082e-01, 1.60481185e-01,
          -5.18367663e-02, -5.19583048e-03, -6.84258267e-02,
          -3.39804739e-01, -2.88963854e-01, 1.06128618e-01,
          3.06398645e-02, 1.74060881e-01, 8.19262788e-02,
          -9.64755043e-02, -8.31281915e-02, -4.41871546e-02,
          -2.17734471e-01, -1.40428215e-01, 5.70219606e-02,
          2.43243556e-02, 1.18228523e-02, -1.90227643e-01,
          3.45852561e-02, -1.61817700e-01, 7.28218853e-02,
          6.80004954e-02, 7.19169853e-03, 2.54761390e-02, 2.03876525e-01,
          7.55882412e-02, -1.20062225e-01, -4.78131324e-02,
          -4.56150234e-01, -6.80280328e-02, -7.78813586e-02,
          -1.52157664e-01, 1.56865418e-01, 1.24869179e-02,
          9.38721150e-02, 8.59169438e-02, -7.59548461e-03,
          -2.42074370e-01, 2.44780332e-02, -1.35190293e-01,
          -1.92873031e-02, 1.23572396e-02, 1.04928315e-01,
          -1.57958597e-01, -1.90954700e-01, -4.44304496e-02,
          5.50913401e-02, -4.24990319e-02, 1.55770704e-01,
          7.68360123e-02, 6.66424260e-02, -7.48174684e-03,
          2.01825812e-01, 1.94540635e-01, -2.16046325e-03,
          7.90228099e-02, -1.47297960e-02, -5.43936454e-02,
          -2.02302292e-01, -4.05965047e-03, 7.82329142e-02,
          1.04733873e-02, -2.46779427e-01, -1.83153804e-03,
          -1.22063085e-01, 7.09633669e-03, -1.51885882e-01,
          -3.22919972e-02, 7.82329142e-02, 1.77153885e-01,
          4.13884930e-02, -6.89254105e-02, -4.40745242e-03,
          -3.51284057e-01, -1.28341559e-02, -4.98769730e-01,
          -2.47463077e-01, 1.77153885e-01, -2.38158591e-02,
          4.31932546e-02, -3.97147313e-02, -1.97702018e-03,
          5.70136383e-02, 1.27987796e-02, -1.67671502e-01,
          3.85338590e-02, -2.38158591e-02, 3.26654054e-02,
          -2.07963958e-01, -1.03983153e-02, -2.80219186e-02,
          -1.74572598e-03, 2.63553038e-02, 1.82154194e-01,
          9.54334661e-02, 2.72209942e-02 ]
      - [ 4.52397886e-04, -2.64984488e-01, -9.47976634e-02,
          3.51995267e-02, 8.41678381e-02, -2.73924526e-02,
          1.37624651e-01, 1.59996301e-01, -8.03146604e-03,
          -1.68274850e-01, 3.59126702e-02, 4.53044996e-02,
          7.70072415e-02, 1.39827654e-01, 6.64551184e-03, 7.20738843e-02,
          1.98379792e-02, -1.69969469e-01, -6.28442988e-02,
          1.46999553e-01, 1.99514762e-01, 3.80011387e-02,
          -6.99352771e-02, -1.20287472e-02, -8.68144259e-02,
          -2.32204780e-01, -6.40164986e-02, 2.10395068e-01,
          1.73854902e-01, 2.95793470e-02, -3.07554435e-02,
          -2.57078946e-01, -3.20640728e-02, -3.88273388e-01,
          -2.31041878e-01, 2.27793157e-01, 1.27138183e-01,
          3.11011691e-02, -1.32718822e-02, -1.26638403e-02,
          -2.71128975e-02, -1.79380663e-02, -7.09206983e-02,
          -5.33835180e-02, 1.37555733e-01, 5.56637496e-02,
          1.68192953e-01, 6.68880790e-02, 3.92093416e-03,
          -4.31571342e-02, -2.60930955e-02, -2.31037542e-01,
          -1.13124833e-01, 6.99059293e-02, -2.18920186e-02,
          1.40960708e-01, 1.16042964e-01, 3.63434963e-02,
          -1.60941167e-03, 6.68761134e-02, -4.98586744e-02,
          -9.31001678e-02, -2.12229062e-02, 1.48671553e-01,
          -2.19559252e-01, -2.23885462e-01, 1.69330079e-03,
          -1.25102356e-01, -1.51566733e-02, -6.10352606e-02,
          -5.55287041e-02, 1.48671553e-01, 8.96800011e-02,
          -2.62257367e-01, -4.98727672e-02, -1.65190473e-02,
          -2.06725612e-01, 2.51780469e-02, 1.31306335e-01,
          4.17723656e-02, 9.07464549e-02, 3.86365727e-02,
          -1.75122797e-01, -1.65263489e-01, -1.68658178e-02,
          6.03098497e-02, 1.48976129e-02, 2.11209238e-01, 8.93787891e-02,
          5.32882623e-02, 1.42010003e-01, 1.58694819e-01, 1.30165219e-01,
          -3.45691815e-02, -1.43481225e-01, -4.16910276e-02,
          -8.62284675e-02, -1.90365210e-01, 1.46760598e-01,
          5.22713736e-02, 1.96432799e-01, 1.20177895e-01,
          -4.78329509e-03, -1.58065498e-01, 7.75248697e-03,
          -2.58813232e-01, -1.90530330e-01, 5.22713736e-02,
          1.27138600e-01, -2.61207521e-01, -1.92392796e-01,
          -4.23381338e-03, -1.17267072e-01, -1.16504384e-02,
          -4.36122715e-02, -2.61733960e-02, 1.27138600e-01,
          1.35045990e-01, -3.65391403e-01, -2.31807828e-01,
          -2.67323479e-02, -2.52366334e-01, -2.69895047e-03,
          1.79688498e-01, 1.08153947e-01, 1.47186205e-01, 1.59378704e-02,
          -1.05582505e-01, -1.09597286e-02, -2.35467106e-02,
          -8.93439054e-02, 2.86557227e-02, 2.11950779e-01,
          1.04982898e-01, 1.52394306e-02 ]
      - [ -1.09366644e-02, 5.39810993e-02, 3.09472568e-02,
          -4.35273070e-03, 1.73545666e-02, 3.70562449e-02,
          -1.64927632e-01, -8.68157074e-02, 3.76726291e-03,
          -6.09507151e-02, 2.94458009e-02, 9.84293446e-02,
          -1.50081376e-03, 4.00269516e-02, -5.81967272e-03,
          -1.54974625e-01, -8.47679451e-02, -5.04674017e-02,
          -9.52110142e-02, 2.93736875e-01, 2.02019840e-01,
          -1.15502207e-02, -7.28797391e-02, -2.37557907e-02,
          -8.24126601e-02, -5.43589480e-02, -8.69331434e-02,
          7.94874206e-02, 3.34531844e-01, 1.47221774e-01,
          -1.27288150e-02, -2.83227801e-01, -9.43018682e-03,
          -1.18900195e-01, -7.21231326e-02, 7.35309198e-02,
          7.54396692e-02, 1.02900624e-01, -8.08336586e-03,
          1.32764075e-02, -1.75571609e-02, 4.79090922e-02,
          -4.36723232e-02, -1.03431545e-01, 8.54151249e-02,
          5.47877923e-02, -1.06406659e-02, -4.40854877e-02,
          -1.72528829e-02, -3.02211684e-03, 1.90261342e-02,
          -5.06068356e-02, 6.13053888e-03, 5.45862727e-02,
          2.71783415e-02, -3.69663946e-02, 5.23900278e-02,
          -9.56304139e-04, -4.08315919e-02, -2.38686521e-03,
          -2.61364486e-02, -5.40839769e-02, 2.51944680e-02,
          -8.53587911e-02, 2.59540707e-01, 1.69233620e-01,
          -1.30205126e-02, -1.86052263e-01, -3.56336460e-02,
          -3.23723525e-01, -2.42272452e-01, -2.53049452e-02,
          -4.19001691e-02, 2.40238264e-01, 1.03711732e-01,
          -2.00458989e-02, 5.27226068e-02, -8.83573201e-03,
          -1.19379446e-01, -1.51293531e-01, -3.55869308e-02,
          1.06127650e-01, -1.47043988e-01, -1.48102194e-01,
          1.84439886e-02, 1.72608590e-03, 3.86548601e-02, 8.89645293e-02,
          1.03294291e-01, 1.08627178e-01, 9.19393357e-03, 1.01928655e-02,
          4.27864492e-02, -2.97937058e-02, -1.33403242e-01,
          -1.41080227e-02, 2.61145923e-02, 2.45033130e-02,
          9.10855271e-03, -5.96969482e-03, -5.05782627e-02,
          5.78389876e-02, -6.73871860e-03, -3.23367342e-02,
          -5.74924238e-03, 2.79118549e-02, 5.30501362e-03,
          -5.96969482e-03, -3.96216847e-03, 3.20670784e-01,
          1.69407144e-01, 7.01342724e-05, -8.34301114e-02,
          -1.79547016e-02, -3.40324968e-01, -2.44487569e-01,
          -3.96216847e-03, -1.04856677e-01, 1.81702137e-01,
          1.53364956e-01, 1.71153657e-02, 2.60369211e-01, 1.66961737e-02,
          -1.78768829e-01, -1.37434989e-01, -8.77781808e-02,
          -5.16353212e-02, -9.64413881e-02, 1.32706854e-02,
          3.11939605e-02, 9.03593376e-02, 1.15766153e-02, 1.42767623e-01,
          5.85947223e-02, -4.33940552e-02 ]
      - [ -1.90688476e-01, 1.08610772e-01, 1.32932991e-01,
          7.68055115e-03, 1.65371403e-01, 7.22382814e-02,
          -1.48236349e-01, -5.10122515e-02, -1.71909317e-01,
          1.59437023e-02, -7.05572441e-02, 2.62365248e-02,
          -1.34858331e-02, 1.76246502e-02, -2.19047986e-04,
          1.21274598e-01, 3.50717977e-02, 9.58503690e-03,
          -1.08328626e-01, 2.12437809e-01, 4.85442765e-02,
          1.02819270e-02, -5.12481965e-02, -5.65236621e-03,
          -8.43948573e-02, -3.73331904e-02, -1.14260897e-01,
          1.53645396e-01, 2.92835593e-01, 1.16419241e-01,
          -7.75175914e-02, -3.28566700e-01, -6.08989596e-02,
          -3.27187359e-01, -1.40415147e-01, 1.63287282e-01,
          5.75057715e-02, 1.47077546e-01, 5.16502783e-02, 1.07160518e-02,
          -1.56203374e-01, 2.84896400e-02, 1.28558859e-01,
          6.59578964e-02, 4.44607846e-02, -4.50536311e-02,
          -2.29472950e-01, -1.02969356e-01, 3.44781764e-02,
          8.24467316e-02, 4.92149293e-02, 1.85406566e-01, 1.14090383e-01,
          -4.82971929e-02, 3.16681974e-02, -5.05587198e-02,
          7.05055296e-02, -9.56676807e-03, 8.26741755e-02,
          -3.43233836e-03, -1.11662395e-01, -9.73205417e-02,
          3.16681974e-02, -2.01352954e-01, 3.68910521e-01,
          2.07542270e-01, -4.21497226e-02, -2.81779528e-01,
          -1.28866071e-02, -2.59082496e-01, -1.78025141e-01,
          -1.02048956e-01, -4.10814397e-02, 6.91134408e-02,
          -8.40575341e-03, -3.34360972e-02, 1.28870845e-01,
          -3.57365496e-02, -1.18568793e-01, -6.50645643e-02,
          -3.35243642e-02, -7.25067183e-02, 2.15867832e-02,
          5.50516732e-02, 4.83450964e-02, 9.09560397e-02, 3.85410972e-02,
          -9.93963555e-02, -5.71577847e-02, -7.65187144e-02,
          1.18968539e-01, -2.00377867e-01, -1.79644808e-01,
          -4.08919109e-03, -1.74244717e-01, 1.73515547e-02,
          4.10945080e-02, 9.18667540e-02, 1.00589156e-01, 1.78676322e-02,
          -8.43689069e-02, 1.07805185e-01, -3.89467552e-03,
          -9.64270309e-02, -7.41005584e-04, -2.69909538e-02,
          -3.27856317e-02, 1.78676322e-02, -3.04308254e-02,
          2.19446033e-01, 6.87998608e-02, -6.29915902e-03,
          -2.02831738e-02, 8.80405772e-04, -2.12967440e-01,
          -9.46102589e-02, -3.19829620e-02, -7.18473047e-02,
          4.52839658e-02, 4.64518182e-02, -2.58162559e-04,
          2.36044019e-01, -1.68836433e-02, -1.15054168e-01,
          -1.25727385e-01, -4.23777252e-02, -6.26148134e-02,
          -1.08795300e-01, 5.07149920e-02, 3.32319811e-02,
          1.38195321e-01, -5.05355978e-03, -4.05002050e-02,
          4.77586733e-03, -5.91832213e-02 ]
      - [ -6.93019703e-02, 1.08460067e-02, 3.22209485e-02,
          1.02264630e-02, 3.22209485e-02, 1.84221603e-02, 5.52224752e-04,
          5.54009515e-04, -5.85085750e-02, -4.30424958e-02,
          1.60564631e-02, 1.02308840e-02, 7.57926842e-04, 2.17314512e-02,
          -1.18594095e-02, -3.21704918e-03, -9.59235150e-03,
          -3.57553512e-02, -1.08301882e-02, 8.26874226e-02,
          2.98775733e-02, 6.87135989e-03, 3.84334504e-04,
          -7.09980167e-03, -7.71755725e-02, -4.15977761e-02,
          -2.74630338e-02, 1.13521092e-01, 1.60360187e-01,
          8.87386054e-02, -1.23573169e-02, -1.61080226e-01,
          -6.68069348e-03, -1.89073578e-01, -1.59016922e-01,
          1.10080212e-01, 1.15071185e-01, 1.18152343e-01, 1.17597297e-01,
          2.50427256e-04, -4.35188524e-02, 1.84717495e-02,
          -7.48324990e-02, -1.66004986e-01, 1.20253630e-01,
          4.22991347e-04, 8.87457463e-06, -5.89488298e-02,
          -1.80779379e-02, -4.04948182e-02, -1.89831257e-02,
          1.64927319e-01, 7.62706473e-02, -6.11224270e-04,
          -2.82195234e-03, 4.84600440e-02, 4.44145016e-02,
          -2.51704431e-03, -3.09151616e-02, -1.14763100e-02,
          -3.41737159e-02, 1.70958971e-04, -3.38493311e-03,
          -4.85255532e-02, 2.09517136e-01, 1.76404893e-01,
          -5.77642024e-03, -1.61309734e-01, -7.13343685e-03,
          -1.90793544e-01, -9.67625082e-02, -1.79865453e-02,
          9.75408778e-03, 3.31420153e-02, 1.29778590e-02,
          -1.31863644e-02, 1.05706009e-03, -1.30578773e-02,
          -3.53804938e-02, -1.57419797e-02, -1.09079778e-02,
          1.00158691e-01, -1.31188542e-01, -5.03835119e-02,
          1.05209323e-02, 1.34655805e-02, 2.05844194e-02,
          -1.92378480e-02, 2.00393260e-03, 9.91267115e-02,
          8.96593258e-02, -8.82929564e-02, -1.32289320e-01,
          -2.91156098e-02, -8.38113725e-02, -1.50710903e-02,
          3.24195027e-02, 8.96062925e-02, 1.00611381e-01, 7.67731443e-02,
          9.00781807e-03, 3.35288756e-02, -1.50934728e-02,
          -1.95327863e-01, -1.06231645e-02, 1.04395412e-02,
          -4.71612401e-02, 8.85256752e-02, -2.74116010e-03,
          1.86644137e-01, 1.81091428e-01, -1.17366784e-03,
          -9.70016718e-02, -8.05704622e-04, -1.99632064e-01,
          -1.25312597e-01, -5.67313842e-03, -6.29822314e-02,
          3.20580229e-02, 2.32430212e-02, 1.21551929e-02, 1.33169428e-01,
          3.35917389e-03, -5.68659883e-03, -2.74557038e-03,
          -4.80220914e-02, 2.49111447e-02, -9.97144207e-02,
          7.57805444e-03, 3.07588894e-02, 1.54964505e-02, 4.09202697e-03,
          3.77930291e-02, 1.57221109e-02, 3.11316215e-02 ]
      - [ -4.66351472e-02, 4.42761704e-02, 1.82933677e-02,
          2.50353608e-02, 1.82933677e-02, 4.00882773e-02,
          -4.64480110e-02, -2.11719796e-02, -4.06341963e-02,
          -7.87468627e-02, 1.76136363e-02, 2.38435399e-02,
          2.01536319e-03, 9.57260653e-02, 5.82107902e-03,
          -2.92095123e-03, -3.70755456e-02, -7.18407407e-02,
          -8.01250264e-02, 1.37748107e-01, 3.72211821e-02,
          1.72844641e-02, 1.65656693e-02, 1.98018644e-03,
          -6.95997849e-02, -2.16817968e-02, -8.67929906e-02,
          -1.52802188e-02, 2.75965840e-01, 1.55246720e-01,
          -1.09752854e-02, -1.19031161e-01, -7.43772835e-04,
          -1.96363822e-01, -1.57012433e-01, -7.07945926e-03,
          7.02768415e-02, 1.03491008e-01, 5.35912663e-02, 1.25411749e-02,
          -5.37471706e-03, 3.09845638e-02, -5.00719436e-02,
          -1.72909424e-01, 8.32427517e-02, -1.65498406e-02,
          -1.53933084e-02, -3.25931758e-02, -1.17641725e-02,
          1.39848972e-02, 4.06634286e-02, 2.03673318e-02,
          -1.47774341e-02, -1.92769561e-02, 5.81038035e-02,
          7.03905225e-02, 8.66629556e-02, -1.52167035e-02,
          -1.02910250e-01, -2.91806180e-02, 4.68846923e-03,
          -4.67319600e-02, 5.74907288e-02, 9.71372146e-03,
          3.04540902e-01, 2.17796043e-01, -6.94465032e-03,
          -1.50768057e-01, -5.95815154e-03, -3.02521020e-01,
          -2.54925340e-01, 5.54808229e-02, 3.52917202e-02,
          5.35480082e-02, -8.57353210e-03, -7.92694557e-03,
          -1.10006826e-02, -2.46142619e-03, -7.35688061e-02,
          -7.50130564e-02, 3.49069089e-02, 9.64353159e-02,
          -1.63562596e-01, -7.68454671e-02, 1.19203497e-02,
          5.22366352e-03, 3.17184590e-02, 3.99719924e-02, 3.78428809e-02,
          9.55687463e-02, 7.88057130e-03, -5.21789044e-02,
          -1.18850581e-01, -2.18351875e-02, -5.82422428e-02,
          1.63556058e-02, 3.17367949e-02, 4.59143929e-02, 1.68719012e-02,
          3.66720632e-02, 4.79742698e-02, 1.40910685e-01,
          -5.67459874e-03, -2.37400874e-01, -1.38855726e-02,
          -3.41432914e-02, -9.04361457e-02, 3.66720632e-02,
          2.16246378e-02, 2.48548225e-01, 1.39858708e-01,
          -2.73776473e-03, -8.77607092e-02, -1.84008270e-03,
          -2.58971184e-01, -2.29096308e-01, 2.16246378e-02,
          -7.58386850e-02, 7.50458315e-02, 7.69350007e-02,
          1.58515479e-02, 1.39459446e-01, 6.28102152e-03,
          -1.22427218e-01, -3.37137729e-02, -5.62698767e-02,
          -6.03351966e-02, -6.02562279e-02, 1.93136521e-02,
          3.31328548e-02, 1.02935903e-01, 1.15602743e-02, 8.23255181e-02,
          3.62301022e-02, -5.67793921e-02 ]
      - [ 1.25634164e-01, 4.45496351e-01, 6.24860115e-02,
          -8.06339830e-02, -1.21232621e-01, -1.47322059e-01,
          -2.32831106e-01, -1.07312433e-01, 1.67778060e-01,
          2.04224903e-02, 1.15591928e-01, 7.03339055e-02,
          -1.12895072e-01, -8.35646689e-02, -1.02170542e-01,
          2.12547809e-01, 3.81239615e-02, 4.14564535e-02,
          -2.51206845e-01, 3.02607000e-01, 6.31782115e-02,
          1.21614039e-02, 7.93513432e-02, 6.82144566e-03, 1.16348945e-01,
          1.92195121e-02, -2.46658131e-01, -1.36146992e-01,
          3.23193252e-01, -1.52342198e-02, 3.30809713e-03,
          9.22081620e-02, 9.79428738e-03, -4.44722921e-02,
          -3.10375541e-02, -9.11337957e-02, -1.04028627e-01,
          -4.74035963e-02, 2.01755986e-01, 1.16471715e-01,
          9.32873487e-02, 1.12475403e-01, 1.09217070e-01, 7.17057474e-03,
          -6.17641695e-02, -6.60172403e-02, 3.14588733e-02,
          9.58320573e-02, -2.24719390e-01, -1.53858252e-02,
          -2.12995082e-01, 1.42568797e-01, 2.50419468e-01,
          -1.73594113e-02, 4.04233262e-02, -5.21428436e-02,
          2.46678721e-02, -4.09983881e-02, 9.19664279e-02,
          -5.22113964e-02, -5.97747080e-02, -8.92250687e-02,
          4.04233262e-02, -2.81058282e-01, 2.04074815e-01,
          1.09435827e-01, -2.22201645e-03, 1.41015470e-01,
          7.26410188e-03, 3.07023693e-02, 6.30961964e-03,
          -2.24670172e-01, -2.24699393e-01, 2.49482214e-01,
          -5.93293384e-02, -1.42290979e-03, 5.06902456e-01,
          1.56011553e-02, 5.33107482e-02, 9.75672994e-03,
          -2.16773108e-01, -2.64662206e-01, -3.71204674e-01,
          -2.82985926e-01, 2.08590552e-01, 4.20964181e-01,
          1.92605078e-01, 2.98305839e-01, 1.74816713e-01,
          -2.62659639e-01, -6.60686120e-02, -2.41101623e-01,
          -3.71105820e-01, -1.17938600e-01, 2.19930187e-02,
          -5.45950681e-02, 1.24959901e-01, 2.42701918e-01,
          -3.58550213e-02, 2.74035279e-02, -3.81148696e-01,
          -8.46252136e-04, -1.73221063e-02, -7.37402961e-02,
          -6.90550171e-03, 3.01938713e-01, 9.45094153e-02,
          2.74035279e-02, -8.36118907e-02, 2.78048992e-01,
          -1.68989412e-02, -8.97691771e-03, -1.62128225e-01,
          2.89240293e-03, 2.00962089e-02, 2.65133544e-03,
          -9.69559029e-02, -3.36580306e-01, 3.30327451e-01,
          1.08689122e-01, -2.74497014e-03, 2.80238360e-01,
          2.96191666e-02, -1.18351273e-01, -2.42205262e-02,
          -3.32514405e-01, -1.52798250e-01, -3.86478789e-02,
          -7.72694265e-03, 1.32868528e-01, 2.43861750e-01,
          5.79358265e-02, 7.06825685e-03, 4.78253178e-02,
          -1.40767336e-01 ]
      - [ -2.18259655e-02, -2.25627683e-02, 2.78521497e-02,
          3.69037688e-02, 3.49884368e-02, 4.27563787e-02,
          -1.08990520e-02, -4.68432484e-03, -5.44417761e-02,
          -1.40047595e-01, 1.38995200e-01, 6.21112175e-02,
          5.89812640e-03, 2.13585824e-01, -7.36448448e-04,
          -1.21838361e-01, -1.04368411e-01, -1.36522740e-01,
          -1.06775902e-01, 1.75674722e-01, 7.46325925e-02,
          1.44953246e-03, 2.45462153e-02, -1.28841319e-03,
          -1.39988691e-01, -9.12008286e-02, -1.16482556e-01,
          -7.58055598e-02, 2.67873794e-01, 7.55474269e-02,
          -2.24642851e-03, -1.74495220e-01, -7.29276147e-03,
          -8.68503824e-02, -5.00597320e-02, -5.37156314e-02,
          3.40542234e-02, 1.59589782e-01, 1.38451830e-01, 1.93614997e-02,
          -7.79423304e-03, 2.56277435e-02, -7.43698180e-02,
          -1.60804972e-01, 1.81904901e-02, 5.03558032e-02,
          1.68371182e-02, 3.50654088e-02, -6.96767494e-02,
          -4.33742926e-02, 2.01830780e-03, -4.18084254e-03,
          1.14298221e-02, 5.19075505e-02, 6.27144575e-02, 1.02942355e-01,
          3.37537415e-02, -2.82612946e-02, -9.73473564e-02,
          -2.44218521e-02, -6.36089295e-02, -1.25996649e-01,
          6.95283413e-02, -4.39668484e-02, 3.34857196e-01,
          1.54592276e-01, -6.90602958e-02, -2.92600185e-01,
          -5.30406348e-02, -3.11577946e-01, -1.84068650e-01,
          9.14926350e-04, -9.08156708e-02, 2.60871351e-01,
          8.66685212e-02, -9.44823120e-03, 5.68685159e-02,
          -4.68241237e-03, -1.37325868e-01, -6.14267401e-02,
          -8.95884484e-02, 7.50926659e-02, -1.66842163e-01,
          -5.34903184e-02, 1.57588776e-02, -4.68004262e-03,
          3.07578258e-02, 8.57803002e-02, 6.25272915e-02, 4.75968160e-02,
          6.63861856e-02, 2.47010589e-02, 9.14887413e-02,
          -2.19380632e-02, -7.90834501e-02, -1.10132415e-02,
          -5.00662765e-03, -5.51807992e-02, 8.54291841e-02,
          4.24676053e-02, -2.95876758e-03, -4.00975859e-03,
          -1.49515476e-02, -1.81077495e-01, -1.69560611e-02,
          3.41763571e-02, -4.11198102e-02, 4.24006023e-02,
          5.13750054e-02, 2.82041073e-01, 8.45765471e-02,
          -2.44996771e-02, -2.37157777e-01, -7.51444278e-03,
          -3.74317169e-01, -1.77662164e-01, 5.13515994e-02,
          -1.35017991e-01, 2.41064474e-01, 1.62945688e-01,
          1.23951370e-02, 2.07570091e-01, 3.04747792e-03,
          -1.87355056e-01, -6.03906475e-02, -1.05799697e-01,
          -2.06381027e-02, -1.46748513e-01, 1.21194134e-02,
          1.80512834e-02, 1.10317692e-01, -6.28453260e-03,
          1.26805693e-01, 7.21027106e-02, -2.62679085e-02 ]
      - [ -1.27749696e-01, 1.90936727e-03, 4.46553826e-02,
          3.68126333e-02, 6.34035245e-02, 1.32888444e-02,
          -8.64906460e-02, -2.37445887e-02, -9.05093178e-02,
          -1.84237152e-01, 1.94889352e-01, 1.29865527e-01,
          -1.11280326e-02, 1.31602556e-01, -2.92706257e-03,
          -5.99160157e-02, -8.52500051e-02, -1.49477616e-01,
          -9.56505463e-02, 4.55531985e-01, 3.11886072e-01,
          1.95740573e-02, 3.85763161e-02, 1.55428201e-02,
          -2.57846326e-01, -2.99531668e-01, -1.07569978e-01,
          1.22312374e-01, 4.19106156e-01, 1.00625217e-01,
          -7.12511986e-02, -4.00147676e-01, -2.62367856e-02,
          -3.43218565e-01, -1.39216036e-01, 1.23630583e-01,
          9.83407721e-02, 9.01002362e-02, -7.83004537e-02,
          -3.27848755e-02, -7.09768981e-02, 5.73134460e-02,
          1.75858304e-01, 3.72675359e-02, 9.30079669e-02, 3.66267636e-02,
          4.64148745e-02, 6.52930886e-02, 2.23622620e-02, 9.47858579e-03,
          -2.58700699e-02, -4.69295159e-02, -8.35297033e-02,
          4.43010926e-02, -1.45477094e-02, 9.11156461e-02,
          1.57390863e-01, -5.98490145e-03, 8.16538464e-03,
          -1.70286931e-02, -5.01734540e-02, -5.88821359e-02,
          -1.45477094e-02, -8.65751654e-02, 1.42776310e-01,
          1.29631266e-01, -2.81240838e-03, -1.52758956e-01,
          -2.52849832e-02, -3.56664062e-01, -1.18137680e-01,
          -1.33156404e-02, -5.60487024e-02, 5.84711728e-04,
          -2.81241117e-03, -9.75789409e-03, 1.55478999e-01,
          5.41741773e-03, -1.54638803e-02, -9.09928640e-05,
          -7.84667283e-02, -5.90585433e-02, -2.83322304e-01,
          -1.23214990e-01, 4.09845747e-02, 1.56700954e-01,
          1.22625545e-01, 1.97235808e-01, 5.91834038e-02,
          -6.52396381e-02, 5.67464083e-02, 3.03972163e-03,
          5.60327582e-02, -4.63720337e-02, -7.41171837e-02,
          -1.29432678e-02, -2.78874533e-03, -5.15484773e-02,
          1.02082632e-01, -7.07363710e-03, 1.40558506e-04,
          1.22967534e-01, -5.50922239e-03, -2.30652511e-01,
          -4.39996691e-03, 5.72768524e-02, 2.51063555e-02,
          -7.07363710e-03, 2.25902554e-02, 9.31101963e-02,
          4.17088754e-02, -4.00636625e-03, -2.70125270e-01,
          -2.28553321e-02, -1.06606171e-01, -4.53354083e-02,
          1.87661219e-02, -9.40377787e-02, 6.63591623e-02,
          9.52582508e-02, 2.65498031e-02, 1.88982412e-02,
          -7.99896382e-03, -1.84262007e-01, -6.73302412e-02,
          -4.72830087e-02, -1.05246730e-01, -1.13830350e-01,
          7.44050518e-02, 8.29779729e-02, 1.67415932e-01, 3.56588289e-02,
          8.23939964e-02, 1.60618238e-02, -9.68372375e-02 ]
      - [ -2.55880594e-01, 1.00730434e-01, 1.50220588e-01,
          2.66085695e-02, 7.65483528e-02, 4.38650288e-02, 1.72745720e-01,
          1.12558931e-01, -3.07535589e-01, -2.19202302e-02,
          -7.81672820e-02, -1.02285534e-01, -4.31642728e-03,
          -2.15127505e-03, -1.03864400e-03, 2.70626217e-01,
          1.79688662e-01, -3.27671990e-02, -6.93144128e-02,
          -1.85982585e-01, -1.68287307e-01, 2.58975551e-02,
          6.86146840e-02, 3.50837596e-02, -9.73700434e-02,
          1.74231473e-02, -6.85195848e-02, 8.11476633e-02,
          -1.73928097e-01, -1.86562300e-01, -5.97623698e-02,
          6.30467758e-02, -1.85348075e-02, -1.73286974e-01,
          -7.65590742e-02, 9.14895162e-02, -5.91926835e-02,
          -1.09275430e-02, 4.48754542e-02, -6.19852729e-03,
          -1.60616651e-01, -1.27144391e-02, 2.90116936e-01,
          2.81817198e-01, -6.17324561e-02, -1.37388095e-01,
          -4.57672089e-01, -2.78401047e-01, 1.22273766e-01,
          1.58364579e-01, 8.47513676e-02, 3.64146024e-01, 2.48362213e-01,
          -1.58601269e-01, -7.78590795e-03, -1.88492183e-02,
          -5.11069596e-02, -1.12033598e-02, 8.12563226e-02,
          1.50934327e-03, 1.19700171e-02, 6.88264333e-03,
          -7.78590795e-03, -6.01636060e-02, 6.69140518e-02,
          -1.76738657e-03, -2.01117974e-02, -1.98343202e-01,
          2.80750319e-02, 1.23864219e-01, 1.33393362e-01,
          -6.09632879e-02, -4.92295157e-03, -2.55040050e-01,
          -2.21851498e-01, 1.80531126e-02, 1.98915899e-01,
          -7.39459088e-03, 1.23085268e-02, 1.65152311e-01,
          -1.54771563e-02, -3.02863955e-01, 2.42619962e-01,
          1.79195210e-01, 1.06627136e-01, 2.30543911e-01, 1.06694587e-01,
          -2.18807176e-01, -3.18063229e-01, -3.07569563e-01,
          5.56994304e-02, -1.90883175e-01, -2.88557082e-01,
          4.78664041e-02, -5.03983945e-02, 2.32930686e-02,
          8.87070745e-02, 1.16614141e-01, 3.33180651e-02,
          -1.30677940e-02, -5.03668468e-03, 6.08221814e-02,
          2.51851808e-02, -1.44823426e-02, 3.18099484e-02,
          -1.28883095e-02, 2.09853798e-02, -1.30677940e-02,
          -4.40851524e-02, -6.63934126e-02, -1.04686625e-01,
          -3.62308300e-03, 1.13629065e-01, 3.22523564e-02,
          1.11060381e-01, 1.85046226e-01, -4.40851524e-02,
          5.85277453e-02, -1.99378908e-01, -1.86679825e-01,
          2.32309308e-02, 7.43788332e-02, 3.51535454e-02,
          -2.99433693e-02, -2.77755652e-02, 5.85277453e-02,
          1.57292280e-02, 5.05028553e-02, 3.72815318e-02, 3.99325937e-02,
          8.86129029e-03, 3.12813185e-02, -3.40610802e-01,
          -1.09204262e-01, 1.50614763e-02 ]
      - [ -5.69044501e-02, -1.04294658e-01, 2.73113623e-02,
          5.28937094e-02, 6.37957230e-02, 1.65866744e-02, 1.12898543e-01,
          2.91222893e-02, -1.30861863e-01, -9.78461578e-02,
          -1.71788428e-02, 2.76157986e-02, 4.06031124e-03,
          3.75157371e-02, -2.04184204e-02, 5.12651354e-02,
          -2.13459544e-02, -9.95497778e-02, -3.60003719e-03,
          -1.18260369e-01, -1.57821506e-01, -4.74572834e-03,
          7.92009830e-02, 1.51767638e-02, -2.88646549e-01,
          -4.10180911e-02, -1.74202416e-02, 1.25516951e-01,
          -6.58696070e-02, -1.20303139e-01, -7.56712351e-03,
          4.98646758e-02, -1.16621079e-02, -1.85960919e-01,
          -1.37266904e-01, 1.16166860e-01, 2.80631799e-02,
          3.89360264e-02, 9.48086306e-02, 2.65080836e-02, 2.60193693e-03,
          -9.26213432e-03, -5.91794699e-02, -1.19484201e-01,
          5.53319491e-02, 4.15677205e-02, -1.04346067e-01,
          -2.23490372e-01, -1.01666246e-02, -5.98262809e-02,
          -5.04337065e-02, 3.46415222e-01, 2.23679870e-01,
          3.95392850e-02, 5.79552203e-02, 1.40615270e-01, 1.07950471e-01,
          -1.33790234e-02, -1.93846390e-01, -3.74932736e-02,
          -2.54192632e-02, 1.37639875e-02, 6.23311028e-02,
          7.24305734e-02, 1.26877844e-01, 2.05617860e-01,
          -1.82002727e-02, -3.62105101e-01, -7.60917086e-03,
          -5.65889962e-02, 8.66781250e-02, 6.07531518e-02,
          3.78728732e-02, -1.05129465e-01, -3.88206765e-02,
          -3.43313045e-03, -4.45169024e-02, 7.08330143e-03,
          1.12316750e-01, 1.04830645e-01, 9.64913704e-03,
          -6.36518896e-02, -1.74740672e-01, -1.07283173e-02,
          3.28931697e-02, 2.97400728e-02, 5.74236102e-02, 1.07772708e-01,
          5.33850603e-02, -6.35609701e-02, 2.46988773e-01,
          -1.83476135e-01, -3.20577174e-01, -2.43592281e-02,
          -1.97870627e-01, -4.34581339e-02, 1.09561227e-01,
          2.15591088e-01, 2.59358764e-01, 2.48961255e-01, 6.55769631e-02,
          8.10247585e-02, 7.17409700e-03, -3.16158593e-01,
          1.67436562e-02, -4.87679951e-02, -1.57841578e-01,
          2.69060582e-01, 1.84369169e-03, 8.02804977e-02, 2.13159323e-01,
          -1.13274939e-02, -7.69922659e-02, 2.12129205e-02,
          -5.23604751e-02, 3.70835699e-02, -2.09692903e-02,
          -4.28723432e-02, -1.11013450e-01, -2.37400629e-04,
          4.31353860e-02, 1.41240269e-01, 8.78089815e-02, 1.56071037e-01,
          7.15979412e-02, -4.28723432e-02, 1.15028568e-01,
          -5.81841543e-02, -5.81841543e-02, 5.40000461e-02,
          -5.05035035e-02, 1.75507683e-02, 2.57840031e-03,
          5.34553407e-03, 1.08403973e-01 ]
      - [ -2.29535960e-02, -2.66892537e-02, -5.16723618e-02,
          8.23646411e-02, 1.47212495e-03, 5.75870499e-02, 2.20079318e-01,
          1.16923951e-01, -1.46272510e-01, -1.28279552e-01,
          -4.21317108e-02, -8.23550895e-02, 5.36308438e-03,
          1.66741788e-01, 1.32787498e-02, 2.11764142e-01, 4.06369902e-02,
          -1.33798182e-01, -1.39299050e-01, -3.05194497e-01,
          -3.60731930e-01, 9.21402033e-03, 3.10567230e-01,
          1.62803084e-02, -1.89213663e-01, 4.22512777e-02,
          -1.30733177e-01, -1.52662486e-01, 2.85481922e-02,
          5.64567558e-03, 6.11647405e-03, 3.06909800e-01, 2.12413259e-02,
          -2.18078047e-01, -1.94842100e-01, -1.41003713e-01,
          -1.11732725e-02, 1.92628857e-02, 1.23295449e-01,
          -1.34314150e-02, 5.66055849e-02, 1.90472174e-02,
          -2.46666372e-02, -2.19532713e-01, 1.88794006e-02,
          2.48575658e-02, -2.09593773e-01, -1.83099926e-01,
          3.53664160e-02, 6.20204583e-02, 6.18884116e-02, 1.76057428e-01,
          8.84652361e-02, 6.81861956e-03, 1.94928959e-01, 2.01325625e-01,
          1.56838849e-01, -2.69947443e-02, -3.18055242e-01,
          -6.91598505e-02, 5.31372651e-02, -3.41128223e-02,
          1.96800426e-01, 2.32260436e-01, 2.66706914e-01, 3.24808717e-01,
          -2.09621526e-02, -3.61686110e-01, -2.44699847e-02,
          -1.73937142e-01, -9.64325294e-02, 2.25650713e-01,
          1.07628934e-01, -2.19019964e-01, -1.41953170e-01,
          2.44253743e-02, -1.18247539e-01, 2.58527827e-02,
          1.08367234e-01, 1.77247718e-01, 1.01827540e-01,
          -4.64911498e-02, -1.59153536e-01, -7.52850175e-02,
          4.95648272e-02, 1.12155464e-03, 9.04525146e-02, 1.57833815e-01,
          6.30731657e-02, -4.21486497e-02, 9.26378742e-02,
          -2.03318626e-01, -4.61979628e-01, 3.05931456e-03,
          -3.27429771e-02, 3.10910437e-02, 1.19706787e-01,
          1.42564878e-01, 1.00098014e-01, 2.07886115e-01, 9.19427797e-02,
          1.35037392e-01, 3.87478061e-02, -4.68803763e-01,
          3.09083760e-02, -1.82892680e-01, -2.86347151e-01,
          2.07257792e-01, 6.81962147e-02, 1.15511358e-01, 1.94017410e-01,
          -2.70236842e-03, -1.11002378e-01, 1.99494250e-02,
          -6.91323429e-02, -1.69718280e-01, 6.28304482e-02,
          -6.45101517e-02, -1.34523109e-01, -9.24698729e-03,
          4.68203612e-02, 7.95066506e-02, 1.03046447e-01, 6.96103126e-02,
          1.36581376e-01, -6.45101517e-02, -2.66463999e-02,
          6.20891303e-02, -1.73057634e-02, 5.69653511e-02,
          2.40006316e-02, 4.79849912e-02, 1.95107553e-02, 6.21068105e-03,
          -3.13145109e-02 ]
      - [ 1.49259701e-01, 1.86701596e-01, 1.31414616e-02, 1.21562637e-03,
          -1.31709293e-01, -3.36329378e-02, -4.78806607e-02,
          1.06875515e-02, 1.35515943e-01, 5.40966541e-02,
          -9.85537097e-02, -1.02364674e-01, -9.73386038e-03,
          -3.16281579e-02, -1.35154529e-02, 1.94587901e-01,
          1.00016259e-01, 4.25092615e-02, -2.23105792e-02,
          -1.71702012e-01, -1.86400160e-01, 2.63066087e-02,
          2.39772901e-01, 3.78448404e-02, 1.07773349e-01, 5.27410023e-02,
          -2.48468369e-02, -9.44622755e-02, -1.29332706e-01,
          -1.55985713e-01, 3.41597572e-02, 3.31756890e-01,
          3.33405621e-02, -7.28575699e-03, -2.96491683e-02,
          -9.31417868e-02, -1.06981866e-01, -1.05654746e-01,
          1.44589931e-01, 3.02214436e-02, 4.43384945e-02, 3.93101946e-02,
          1.80147186e-01, 1.77958719e-02, -1.00264102e-01,
          -1.10105142e-01, -1.00852540e-02, -8.02334119e-03,
          -1.24499341e-02, -8.34013522e-03, -8.32965504e-03,
          9.91505459e-02, 1.40850484e-01, -8.76316726e-02,
          2.98507046e-04, -6.76944181e-02, -8.33988413e-02,
          -5.00029186e-03, 9.05787200e-02, 2.83069047e-03,
          8.15564170e-02, 5.29363714e-02, 7.77105859e-04,
          -8.48671496e-02, -1.95574805e-01, -1.05724022e-01,
          1.86945461e-02, 2.10867822e-01, 3.19401324e-02, 3.61842632e-01,
          2.88717002e-01, -8.53542462e-02, -9.08137858e-03,
          -1.83242977e-01, -1.81205645e-01, 3.15089673e-02,
          1.48520544e-01, 1.70173813e-02, 1.55470163e-01, 1.30076528e-01,
          -1.98410191e-02, -2.14648157e-01, 5.33401147e-02,
          8.50454345e-02, 5.83104193e-02, 1.32960916e-01, 6.38540611e-02,
          -8.34242254e-02, -2.21952461e-02, -1.88177541e-01,
          4.14665528e-02, -1.39658079e-01, -1.61675915e-01,
          -2.46386435e-02, -2.88960077e-02, 1.55994557e-02,
          6.24235496e-02, 1.17635012e-01, 4.87075076e-02, 5.13140224e-02,
          -1.90123409e-01, -5.71656823e-02, -3.18516046e-03,
          -5.06097041e-02, 1.67830673e-03, 7.87054971e-02,
          5.68200275e-02, 5.13140224e-02, -1.58110429e-02,
          -2.41828173e-01, -2.47307062e-01, 1.53300862e-04,
          7.79383630e-02, 1.33325709e-02, 3.75178486e-01, 2.53325552e-01,
          -1.58110429e-02, 4.82531600e-02, -1.36170670e-01,
          -1.44350439e-01, -1.89733552e-03, -1.56020567e-01,
          -5.12225134e-03, 1.52761444e-01, 1.16483942e-01,
          4.82531600e-02, -3.48374434e-02, 1.17804289e-01,
          2.58045085e-03, 1.37295416e-02, -4.01119776e-02,
          1.91263892e-02, -1.23786032e-02, -8.94356333e-03,
          -3.67672183e-02 ]
      - [ -3.33763137e-02, -1.25204295e-01, -1.11761414e-01,
          7.20536038e-02, 2.56360266e-02, 4.35343497e-02, 4.49231446e-01,
          2.63259202e-01, -2.51439929e-01, -2.74005622e-01,
          4.33936805e-01, 4.93656695e-02, 1.88406780e-02, 4.36492801e-01,
          5.24519430e-03, -1.71327442e-01, -1.48382634e-01,
          -2.91925669e-01, -1.33091748e-01, -3.22249562e-01,
          -3.92916679e-01, 5.20717632e-03, 3.10896277e-01,
          7.99784809e-02, -3.79257679e-01, -1.28437161e-01,
          -1.35189906e-01, -3.82170290e-01, -1.76622108e-01,
          -2.59302765e-01, 4.51086946e-02, 4.65793252e-01,
          1.52880764e-02, 1.40119895e-01, 1.96216494e-01,
          -3.79712880e-01, -1.25556335e-01, 9.82421562e-02,
          4.25238550e-01, -3.64606753e-02, 3.50887775e-02,
          -8.24481770e-02, -6.25994429e-02, -1.39964044e-01,
          -1.99208349e-01, -7.39247203e-02, 7.09636882e-02,
          9.45966840e-02, -1.79709475e-02, -3.81023884e-02,
          2.06833705e-02, -1.96856316e-02, -3.09764463e-02,
          -6.71342313e-02, 9.00928527e-02, 2.66535968e-01,
          -1.17043413e-01, -6.44206405e-02, -2.46713281e-01,
          -2.13816985e-02, -7.99199715e-02, -9.72012952e-02,
          1.10640883e-01, 1.11600958e-01, 2.04412073e-01, 1.21061578e-01,
          -1.39047623e-01, -6.66451514e-01, -6.33336827e-02,
          4.08119857e-02, 2.11811006e-01, 5.57655394e-02,
          -7.25884140e-02, -9.11814198e-02, -2.51926780e-01,
          3.78209688e-02, 8.23815819e-03, 2.60761064e-02, 1.96529642e-01,
          4.13829297e-01, -1.01212427e-01, -7.88193271e-02,
          -8.21390525e-02, -5.26787294e-03, -5.50017413e-03,
          1.69598982e-02, -4.37901914e-03, 1.56877220e-01,
          5.11931777e-02, -1.51322916e-01, 1.11681744e-01,
          4.10547964e-02, 1.04074024e-01, 7.71040395e-02, 1.70868963e-01,
          4.24239971e-02, -7.56837353e-02, -1.88934296e-01,
          1.46930724e-01, 1.21849671e-01, -2.31886525e-02,
          -1.67154804e-01, 3.44219320e-02, -3.07081670e-01,
          3.76456641e-02, -7.10932240e-02, -1.37411252e-01,
          1.21834546e-01, 8.89518633e-02, -6.66747317e-02,
          -1.27783731e-01, -7.97742456e-02, -3.75149310e-01,
          3.06842364e-02, -1.06056541e-01, 1.14009701e-01,
          8.89465809e-02, -7.62357786e-02, 7.86282420e-02,
          -5.89466421e-03, 2.24084407e-02, -8.55946466e-02,
          5.51849939e-02, 3.58180068e-02, 1.65653080e-01,
          -7.62357786e-02, 1.24607407e-01, -6.38459697e-02,
          -3.20464070e-03, 2.17194259e-02, -8.12715590e-02,
          -1.36994035e-03, -8.18739161e-02, -2.29249671e-02,
          1.17185101e-01 ]
      - [ -9.63894743e-03, -3.06285918e-01, -4.78722490e-02,
          1.02756046e-01, 1.46276634e-02, 6.23753257e-02, 2.73206711e-01,
          2.17273638e-01, -6.30406067e-02, -2.45251551e-01,
          -1.01865843e-01, -1.43694103e-01, 2.33927127e-02,
          2.58739531e-01, 3.41817364e-02, 2.40338907e-01, 1.56119764e-01,
          -2.46171176e-01, -1.03696711e-01, 1.89799249e-01,
          3.62887412e-01, 5.25100762e-03, -2.36346088e-02,
          5.79582267e-02, -3.29533607e-01, -3.55552465e-01,
          -1.04510672e-01, 2.11658794e-02, -1.49617968e-02,
          5.86518506e-03, -5.38900644e-02, 1.08332872e-01,
          -1.63483433e-02, -2.21309438e-01, -2.88229614e-01,
          6.79587647e-02, 2.73646992e-02, -1.40863463e-01,
          3.78467739e-02, 2.72500254e-02, 5.12972893e-03, 8.28622580e-02,
          1.39449760e-01, -3.69012430e-02, 4.84077781e-02,
          9.83626395e-02, -1.19051844e-01, -2.61490345e-01,
          -2.39078924e-02, -1.18665621e-02, -7.44322464e-02,
          -5.69517091e-02, 2.10291743e-01, 8.73864293e-02,
          1.03426343e-02, 1.11971647e-01, 1.38447911e-01,
          -3.67726684e-02, -2.11071223e-01, -4.57781702e-02,
          -8.13784823e-03, 7.41053224e-02, 2.44566891e-02,
          -5.84107153e-02, -1.41034409e-01, -1.61690295e-01,
          3.54334936e-02, -6.89106137e-02, 2.38424391e-02,
          1.31332159e-01, 2.61327028e-01, -5.95312901e-02,
          -5.22792786e-02, -2.53316641e-01, -2.87903070e-01,
          4.54019085e-02, 1.16912320e-01, 3.38286832e-02, 3.88594300e-01,
          3.37750137e-01, -7.02218041e-02, -2.98494816e-01,
          -1.71935335e-01, 3.88304256e-02, 2.86100022e-02,
          9.61365029e-02, 7.09438622e-02, 2.76727587e-01, 9.46696922e-02,
          -2.90950775e-01, 8.70236456e-02, -2.55363365e-03,
          -7.01479753e-03, -2.35051801e-03, -8.18952322e-02,
          -3.41973752e-02, -5.81536302e-03, -1.51610836e-01,
          1.57800913e-01, 3.11069060e-02, 8.88828710e-02, 2.53029525e-01,
          2.94443369e-02, -3.99077721e-02, 3.85825597e-02,
          -1.77924231e-01, -1.83385655e-01, 3.11069060e-02,
          -1.48253692e-02, -4.37043369e-01, -2.79958814e-01,
          2.26722774e-03, -2.00368538e-02, 1.70480479e-02,
          5.25498986e-01, 4.53674227e-01, -1.48253692e-02,
          3.29260656e-04, -3.30893964e-01, -2.21163779e-01,
          2.17571557e-02, -9.30768326e-02, 3.59007046e-02,
          3.42822641e-01, 2.96400726e-01, 2.48228684e-02, 5.78283216e-04,
          -6.70514419e-04, -7.26225320e-03, 2.13858653e-02,
          -6.91756723e-04, 2.10393779e-02, 3.35142724e-02,
          6.20438531e-03, -2.59138513e-02 ]
      - [ 1.98197439e-02, -7.47325271e-02, -4.06772904e-02,
          9.53174476e-03, -5.57081513e-02, -1.63625628e-02,
          1.31109118e-01, 4.48220037e-02, 1.98134147e-02,
          -8.58269632e-02, 1.56005537e-02, -1.63351428e-02,
          1.12379054e-02, 6.89297616e-02, -2.08917018e-02,
          -1.01293817e-01, -4.08222750e-02, -8.27943310e-02,
          2.46035568e-02, -3.27578150e-02, 8.16253759e-03,
          -9.83384904e-03, 3.71941738e-02, -2.78936457e-02,
          -6.54600039e-02, -3.78727876e-02, 6.73066592e-04,
          1.00784115e-01, 1.87906250e-02, 3.71271856e-02, 4.61303592e-02,
          -3.64625640e-03, 4.50655557e-02, -4.63344045e-02,
          -1.47423893e-01, 9.34104696e-02, 1.58033326e-01,
          3.46709825e-02, 1.23864450e-01, 2.85834447e-03, 6.33718967e-02,
          1.92213617e-02, -2.01082602e-01, -3.42883438e-01,
          1.85641855e-01, 1.26408145e-01, 2.00130522e-01,
          -2.76194178e-02, -6.75251931e-02, -2.42913187e-01,
          -9.51506570e-02, 1.26797333e-01, 7.81066045e-02,
          1.34702861e-01, 2.71021505e-04, 1.60545647e-01, 9.04259458e-02,
          -1.52707496e-03, -2.16386855e-01, -2.58117039e-02,
          -8.62712637e-02, 9.62310750e-03, 2.71021505e-04,
          4.79147583e-02, 1.05790131e-01, 1.88080058e-01, 1.67671330e-02,
          -9.63322595e-02, -3.82098998e-03, -1.83684051e-01,
          -6.51388988e-02, 3.98404635e-02, 1.36519352e-03,
          3.24813090e-02, 6.05419278e-02, 1.25279296e-02,
          -8.44979882e-02, 1.18154800e-02, 1.05112180e-01,
          5.59014864e-02, -3.21769714e-02, 2.19036445e-01,
          -2.31610179e-01, -8.65340829e-02, -2.35367212e-02,
          -1.01796851e-01, -2.19457895e-02, 6.89206049e-02,
          1.26684159e-01, 2.19197586e-01, 1.21580333e-01,
          -3.54119460e-03, -1.42501593e-01, -3.67899351e-02,
          -8.27865228e-02, -4.66086008e-02, -2.90369391e-02,
          7.45076239e-02, 1.40197381e-01, 1.66120738e-01, 8.46425518e-02,
          -2.93336846e-02, -1.92674957e-02, -3.03392708e-01,
          -1.37786428e-02, -5.91466911e-02, -1.21465892e-01,
          1.86916709e-01, 2.91340426e-02, 1.55068189e-01, 2.89749473e-01,
          5.41506661e-03, -1.83978885e-01, -1.47351995e-03,
          -2.26637870e-01, -1.74115926e-01, 2.91340426e-02,
          -6.24533109e-02, 7.84968957e-03, 7.11478665e-03,
          5.54329297e-03, 5.22400327e-02, 1.16913868e-02, 1.54614285e-01,
          1.31423339e-01, -6.24533109e-02, 9.87101868e-02,
          -8.22855830e-02, -4.79687862e-02, 2.94967252e-03,
          -1.11579336e-01, 3.19843530e-03, 1.67114243e-01,
          6.00616150e-02, 1.04164198e-01 ]
      - [ 1.92546606e-01, -1.01588987e-01, -1.22634538e-01,
          2.91470550e-02, -1.07471533e-01, 6.13241177e-03,
          5.04741967e-02, 2.77938489e-02, 1.70885384e-01,
          -8.07313025e-02, 3.74615565e-02, 6.84879429e-04,
          1.29270162e-02, 9.22463536e-02, 1.56943768e-03,
          -8.04356206e-03, -6.66968450e-02, -7.81522319e-02,
          -4.17514667e-02, 8.45142547e-03, -1.58698112e-03,
          5.81711624e-03, 6.81348741e-02, -7.41388230e-03,
          5.50018810e-02, 3.53084765e-02, -4.45295870e-02,
          -1.45142585e-01, 1.78114265e-01, 1.56490535e-01,
          6.53923750e-02, 1.71829119e-01, 3.72831635e-02, 1.52328471e-02,
          -1.24606743e-01, -1.42490521e-01, 1.13223992e-01,
          -5.68026630e-03, 8.17590132e-02, 2.89692916e-03,
          1.37390122e-01, 4.33930149e-03, -3.51474643e-01,
          -4.14696872e-01, 1.42381579e-01, 6.57661334e-02,
          2.02651277e-01, 1.91044826e-02, -6.79866746e-02,
          -9.13914293e-02, -1.83300916e-02, -1.08991459e-01,
          -9.07747149e-02, 6.89114630e-02, 9.39257517e-02,
          1.42592907e-01, 8.37869048e-02, -1.43388463e-02,
          -2.66175210e-01, -6.27460033e-02, 1.02275737e-01,
          7.04982318e-03, 9.27900523e-02, 1.97022170e-01, 1.09374762e-01,
          1.74784467e-01, 3.88810150e-02, -4.71790992e-02,
          -1.16961878e-02, -1.94034159e-01, -1.88495904e-01,
          1.92306414e-01, 1.04611836e-01, 4.40264158e-02,
          -6.34267787e-03, 5.07222314e-04, -2.98576325e-01,
          9.28370003e-03, 6.76908866e-02, -4.01881747e-02,
          1.03163198e-01, 2.84743458e-01, -2.82716632e-01,
          -1.85019433e-01, -6.73082620e-02, -2.21226946e-01,
          -5.49920201e-02, 2.39996240e-01, 2.94884622e-01,
          2.86661416e-01, -5.25475033e-02, 3.46065387e-02,
          -6.88739568e-02, -4.11481112e-02, 3.51217352e-02,
          9.09998547e-04, 1.78005658e-02, 1.96085703e-02,
          -2.16368344e-02, 9.54272002e-02, 7.12704360e-02,
          5.44720292e-02, -7.28753209e-03, -3.13908696e-01,
          -2.52055395e-02, -8.03629160e-02, -1.45318523e-01,
          9.54272002e-02, 6.54182732e-02, 1.27514303e-01, 2.14614391e-01,
          3.55981220e-03, -1.78990290e-01, -7.87573587e-03,
          -1.18563138e-01, -2.82817304e-01, 6.54182732e-02,
          -4.69650291e-02, 1.92836989e-02, 6.82255477e-02,
          -1.25762529e-03, -7.68239498e-02, 1.63808074e-02,
          3.11813150e-02, 1.19611941e-01, -4.69650291e-02,
          -3.84605117e-02, -2.01462973e-02, -3.96053791e-02,
          -1.42491609e-02, 7.52001163e-03, 8.41490272e-03,
          3.17939997e-01, 9.90400985e-02, -3.84605117e-02 ]
      - [ 3.25287551e-01, 2.15327084e-01, 2.21634861e-02,
          -3.48630510e-02, -2.84393936e-01, -2.48721819e-02,
          -2.05300957e-01, -9.79491621e-02, 3.27214181e-01,
          -6.17397428e-02, 3.88438478e-02, -1.03729153e-02,
          -1.33925183e-02, -1.12648243e-02, 3.55107803e-03,
          4.63408008e-02, 1.61703099e-02, -5.70869185e-02,
          -1.10631429e-01, -3.59434187e-02, -1.56320240e-02,
          1.22302100e-02, 3.70528787e-01, 1.91412345e-02, 2.09929243e-01,
          7.37996399e-02, -1.15643412e-01, -3.11376095e-01,
          1.73691623e-02, -1.09523192e-01, 8.95066708e-02,
          4.13162768e-01, 8.97163078e-02, 2.89346993e-01, 1.21422924e-01,
          -3.14437747e-01, -6.43731207e-02, -1.20903537e-01,
          -3.89828905e-02, 5.33347353e-02, 2.27805659e-01,
          5.60154319e-02, -6.21332712e-02, -1.84225515e-01,
          -4.76621985e-02, -1.00623500e-02, 3.00370753e-01,
          1.11394569e-01, -4.17668037e-02, -5.63371293e-02,
          -9.26669862e-04, -3.23107123e-01, -1.17833167e-01,
          -1.27269735e-03, 1.54609568e-02, -8.56135041e-02,
          -9.10644084e-02, 1.81433558e-02, 4.68687192e-02,
          9.48140025e-03, 1.01355702e-01, 4.01195362e-02, 1.54609568e-02,
          -3.23322006e-02, -2.64839411e-01, -1.51548684e-01,
          3.91678736e-02, 3.68672073e-01, 1.33018969e-02, 3.04819614e-01,
          1.83186874e-01, -3.23322006e-02, -4.96823974e-02,
          7.25946203e-02, -3.75815332e-02, 6.19030297e-02,
          1.14194788e-01, 6.56158105e-02, 1.56666651e-01, 3.31943221e-02,
          -5.86513653e-02, -1.40734855e-02, -9.40482318e-02,
          -2.45850757e-02, -9.59633105e-03, 3.31694959e-03,
          6.13413285e-03, 7.67323300e-02, 1.66274667e-01, 2.72440892e-02,
          -1.15851667e-02, 8.97978395e-02, 2.34310627e-02,
          -4.70101126e-02, 7.63985217e-02, -2.61940691e-03,
          -7.10946470e-02, -1.69651937e-02, 6.69526635e-03,
          2.74913386e-02, -1.29270747e-01, -7.27151334e-02,
          -7.25162728e-03, -3.15925702e-02, -4.90200566e-03,
          1.33441091e-01, 3.88061292e-02, 2.74913386e-02, 2.13687425e-03,
          -1.33848175e-01, -1.36651590e-01, -8.87715549e-04,
          1.53817106e-02, -7.61020603e-03, 2.50116706e-01,
          9.27748308e-02, 2.13687425e-03, -1.61256257e-03,
          1.33639395e-01, 5.23751276e-03, -4.99180518e-03,
          -2.29916543e-01, 1.54088493e-02, 4.36990522e-03,
          6.76927492e-02, -1.61256257e-03, -2.80976258e-02,
          1.07734144e-01, -2.01766621e-02, -3.42536223e-04,
          1.69114885e-03, 2.66328291e-03, 9.75131616e-02, 1.48469899e-02,
          -2.80976258e-02 ]
      - [ 9.81150344e-02, -1.20525815e-01, -2.52837427e-02,
          2.73427982e-02, -3.96039747e-02, -8.30474123e-03,
          4.40573767e-02, 3.69119793e-02, 4.77478541e-02,
          -1.02061726e-01, 2.71617293e-01, 7.12953731e-02,
          3.13817188e-02, 3.17067564e-01, 1.42638786e-02,
          -2.52527624e-01, -2.09828019e-01, -1.00779541e-01,
          -4.67206445e-03, -9.33533609e-02, -1.95531026e-02,
          -1.73420459e-02, 1.07996374e-01, -1.40779074e-02,
          2.76627503e-02, 3.14546586e-03, -6.05320930e-03,
          -1.88672841e-01, 6.12217896e-02, 2.84312125e-02,
          4.50708307e-02, 1.55913606e-01, 1.23941796e-02, 2.13890299e-01,
          1.17168054e-01, -1.85259461e-01, 4.48703654e-02,
          1.27395979e-04, 1.20612614e-01, 9.13113076e-03, 1.68578506e-01,
          -2.21007713e-03, -4.03834343e-01, -3.83820117e-01,
          3.72432619e-02, 1.16663486e-01, 2.24747598e-01, 1.46406233e-01,
          -1.65645167e-01, -1.23889439e-01, -1.16923444e-01,
          -1.64791644e-01, -1.30401134e-01, 1.30026758e-01,
          4.00585942e-02, 1.18576765e-01, 1.44416001e-02, 5.98005299e-03,
          -1.35375053e-01, -1.61938928e-02, -5.19540943e-02,
          -1.25195935e-01, 4.01424095e-02, 1.40703529e-01,
          -3.71878780e-02, -5.80953918e-02, -4.01024520e-03,
          -1.52109981e-01, -7.24306852e-02, -1.90429185e-02,
          2.47923657e-02, 8.79601166e-02, -5.28703593e-02,
          2.09062219e-01, 1.34988919e-01, 1.60669554e-02,
          -2.57673025e-01, 2.32846849e-02, 6.27915710e-02,
          4.19014581e-02, -5.86478077e-02, 2.12392420e-01,
          -1.65111691e-01, -1.81748196e-01, -1.12740166e-01,
          -2.26527736e-01, -8.12427551e-02, 2.35597089e-01,
          3.20314497e-01, 1.89449802e-01, -1.49002206e-02,
          1.70194954e-01, 2.57549316e-01, -3.23826596e-02,
          8.97718817e-02, -5.87953962e-02, -1.23399660e-01,
          -1.86722949e-01, 3.01336851e-02, 8.07841569e-02,
          -3.23021077e-02, -1.34073377e-01, -3.72736761e-03,
          -1.45315275e-01, -2.64792368e-02, -7.21489266e-02,
          -2.15387028e-02, 8.07599127e-02, 5.38553372e-02,
          6.53675646e-02, 1.06981806e-01, 2.68072961e-03,
          -3.19071293e-01, -2.03275960e-02, -5.85159473e-02,
          -1.19033545e-01, 5.38468696e-02, -9.94478464e-02,
          1.32628396e-01, 1.07638709e-01, 5.40494453e-04, 3.27426493e-02,
          1.51706263e-02, 2.61583198e-02, 1.28144503e-01,
          -9.94478464e-02, 2.19190959e-02, -8.96203890e-02,
          -3.93300280e-02, -2.44117789e-02, -4.00238596e-02,
          -6.04584673e-03, 3.01690817e-01, 8.77766386e-02,
          8.90315161e-04 ]
      - [ 1.94299579e-01, -2.14257136e-01, -2.13378713e-01,
          5.41827343e-02, -7.90499300e-02, 8.07898352e-04,
          6.63201436e-02, 4.59610894e-02, 1.93583831e-01,
          -1.53205514e-01, 8.16179737e-02, 1.69419032e-02,
          9.11292154e-04, 2.91019738e-01, 1.15032364e-02,
          -1.50954083e-01, -8.93513113e-02, -1.48910448e-01,
          -4.47536558e-02, 2.91565120e-01, 3.70987862e-01,
          1.53694768e-02, 1.23803750e-01, -1.33717256e-02,
          -1.86928004e-01, -3.48556221e-01, -4.93802205e-02,
          3.39454971e-02, 2.26014741e-02, 2.79670535e-03, 8.17631036e-02,
          -2.04923172e-02, 3.77157778e-02, 6.14067093e-02,
          -2.84304526e-02, 4.41000275e-02, 2.24370249e-02,
          -9.26203579e-02, -6.38613701e-02, -1.77315250e-02,
          1.62254974e-01, 3.98911089e-02, -9.57727507e-02,
          -1.58722013e-01, 4.82809767e-02, 2.07427025e-01,
          3.50912392e-01, 5.51426671e-02, -7.24800900e-02,
          -1.97438270e-01, -9.17848274e-02, -2.53152609e-01,
          -7.68235922e-02, 2.20469385e-01, 4.48552333e-02,
          1.28533006e-01, 4.77530211e-02, -2.76107546e-02,
          -2.09356800e-01, -2.18817815e-02, -3.52514498e-02,
          3.96572053e-02, 4.17512283e-02, 6.50720820e-02,
          -1.64262116e-01, 3.53011000e-03, 3.82653996e-02,
          1.85091998e-02, -3.74417007e-02, -1.68312430e-01,
          4.84485272e-03, 6.50720820e-02, 5.01805656e-02, 2.96006748e-03,
          -3.25747253e-03, 2.80782562e-02, -1.41555935e-01,
          4.25375476e-02, 1.80005357e-01, 2.27884087e-03, 4.89268377e-02,
          8.29035938e-02, -3.32427353e-01, -1.20963134e-01,
          -3.31921205e-02, -1.33104146e-01, -2.32009199e-02,
          3.78020525e-01, 3.15519273e-01, 9.09003094e-02, 2.22767796e-02,
          2.65919089e-01, 3.65191549e-01, -4.24067080e-02,
          -3.64149734e-02, -3.49904560e-02, -8.41609240e-02,
          -2.27234930e-01, 8.19173306e-02, -7.26797804e-03,
          1.71705529e-01, 1.94559574e-01, -2.17639725e-03,
          -1.70929313e-01, -6.61490485e-03, -5.09618670e-02,
          -9.49043930e-02, -7.26797804e-03, 5.78950308e-02,
          -2.15878665e-01, -1.23725049e-01, 5.66745643e-03,
          -1.70168877e-01, -6.65888004e-03, 2.34672368e-01,
          1.13788202e-01, 5.78950308e-02, 2.32331362e-03,
          -9.10402089e-02, -2.40932638e-03, -1.56744383e-02,
          -2.55929530e-01, 8.01928621e-03, 1.48143500e-01,
          1.86514989e-01, 4.46940912e-03, 3.26195918e-03, 2.39673201e-02,
          -1.54014239e-02, -7.20664207e-03, -1.62567616e-01,
          -2.12191232e-02, 2.76492149e-01, 8.94311145e-02,
          1.04099349e-03 ]
      - [ -2.77265012e-02, 5.17042503e-02, -2.77695358e-02,
          -1.20250778e-02, -2.77695358e-02, 5.73779345e-02,
          -8.63208771e-02, -3.31830531e-02, 2.21720356e-02,
          7.36210495e-03, 6.71888366e-02, 1.01023339e-01, 1.50981097e-04,
          -2.59713605e-02, 4.80869338e-02, -1.37454167e-01,
          -4.39190082e-02, 1.42933289e-02, -1.52666718e-01,
          -1.73265278e-01, -2.31919751e-01, 5.42128365e-03,
          8.49174708e-02, -1.62363201e-02, 4.00660664e-01,
          2.59672076e-01, -1.21938974e-01, -6.83988631e-01,
          1.45447120e-01, 3.38445127e-01, 1.92539450e-02, 4.24194396e-01,
          1.88143235e-02, 8.50918368e-02, 7.04113720e-03,
          -6.64824545e-01, -1.91125572e-01, -5.69814700e-04,
          -2.63664592e-02, -2.56514456e-02, 1.02580957e-01,
          7.41740763e-02, 1.02580957e-01, -3.03042457e-02,
          -2.02651024e-01, 2.72461772e-02, -2.04558313e-01,
          1.22155413e-01, -4.62301783e-02, 3.95241618e-01,
          1.21055879e-01, -6.14432991e-01, -3.50562394e-01,
          2.11906172e-02, 8.63270164e-02, -3.33711579e-02,
          1.64482966e-01, 1.99364573e-02, 4.81730700e-02, 3.52584533e-02,
          -5.74228689e-02, -9.23885927e-02, 1.08442262e-01,
          1.75967366e-02, -1.27887232e-02, -8.59263614e-02,
          -2.35084761e-02, 1.64392620e-01, -6.91349059e-02,
          4.55006445e-03, 2.53731664e-02, 2.77354680e-02, 3.77704427e-02,
          5.35826050e-02, 1.52464686e-02, -4.87224897e-03,
          -4.27881554e-02, 2.19177664e-03, -1.70187458e-01,
          -7.05690496e-03, 7.29316324e-02, 8.00454766e-02,
          2.08644539e-01, -1.71077520e-01, -2.34631933e-02,
          -5.55193871e-02, -6.59681037e-02, -1.05975889e-01,
          -3.42943966e-02, 8.54449421e-02, -2.75041997e-01,
          3.12740579e-02, 1.67335704e-01, -1.27146821e-02,
          2.31506407e-01, 4.33630757e-02, 9.45600495e-02,
          -2.21300066e-01, -2.77917236e-01, -2.45057210e-01,
          -7.52174407e-02, 1.09417047e-02, 3.25341299e-02,
          2.27282941e-01, 5.64259626e-02, -7.98229426e-02,
          -1.53033033e-01, -2.62458295e-01, 5.09882775e-05,
          -1.70577783e-03, -1.22897103e-01, 2.01157667e-02,
          9.08176228e-02, -3.89720872e-02, 5.19130416e-02,
          -5.88804036e-02, 2.46719494e-02, 3.74156646e-02,
          1.41334593e-01, 9.08728838e-02, -6.28756136e-02,
          -2.00675607e-01, -2.18128134e-02, -3.65065247e-01,
          -1.26644149e-01, 3.74156646e-02, -1.69804409e-01,
          1.77530140e-01, 9.43768248e-02, -4.52410877e-02,
          2.74947435e-02, -2.29359549e-02, -7.25789787e-03,
          -2.18571373e-03, -1.98951587e-01 ]
      - [ 1.32756427e-01, 1.18736863e-01, 9.76894516e-03,
          -6.20503444e-03, -8.81397501e-02, -1.03167631e-03,
          -1.35883838e-01, -5.52003570e-02, 1.34282768e-01,
          6.65017813e-02, -2.85593159e-02, -2.86331791e-02,
          -6.12138584e-03, -4.36909460e-02, 1.41458567e-02,
          8.30138847e-02, 2.71640196e-02, 6.66343272e-02,
          -5.86872734e-02, 3.32336128e-02, 2.62987521e-02,
          8.06632731e-03, 1.54891625e-01, 1.92425605e-02, 8.57984424e-02,
          1.93979759e-02, -4.85495962e-02, -1.58176720e-01,
          -1.31220615e-03, -4.52793017e-02, 1.31314406e-02,
          1.57236964e-01, 8.06261040e-03, 9.25003439e-02, 9.67234895e-02,
          -1.53511301e-01, -1.27677798e-01, -8.80742967e-02,
          -7.97197148e-02, 2.45464873e-02, 7.53962472e-02,
          1.33380732e-02, 1.05792306e-01, 1.08865097e-01,
          -1.27958521e-01, -6.81515634e-02, 4.13671881e-03,
          5.24923354e-02, 1.89117193e-02, 5.92372455e-02, 4.46890220e-02,
          -1.52144969e-01, -5.25214225e-02, -6.80251867e-02,
          -1.58996601e-02, -8.00815076e-02, -5.62476218e-02,
          6.71862951e-03, 1.11334935e-01, 2.10324861e-02, 8.30373242e-02,
          2.24700850e-02, -1.38230780e-02, -5.32602370e-02,
          -1.63368359e-01, -1.55630544e-01, 6.42287824e-03,
          1.98530272e-01, 7.35819433e-03, 2.13747472e-01, 1.16710298e-01,
          -4.75227050e-02, -1.89755093e-02, -1.43992081e-02,
          -3.16040590e-02, 1.36801656e-02, 7.66825303e-02,
          1.51798427e-02, -7.33469240e-03, 6.03185780e-03,
          -5.28421020e-03, -1.00353114e-01, 3.30073200e-02,
          1.70778390e-02, 1.57017782e-02, 8.41818452e-02, 1.63093861e-02,
          -2.74938084e-02, -4.01486084e-03, -7.99159408e-02,
          -6.92871138e-02, 6.88056927e-03, 5.82509227e-02,
          -8.54146574e-03, 4.27763872e-02, 2.44213883e-02,
          -2.44307891e-02, -1.92952305e-02, -6.83589131e-02,
          -1.02068461e-01, -9.57529470e-02, -3.36614549e-02,
          7.56419310e-03, 1.66073442e-01, 1.13250436e-02, 7.37644807e-02,
          7.38202035e-02, -1.12131126e-01, -2.56996453e-02,
          -1.46798298e-01, -2.06326589e-01, 4.03193897e-03,
          1.10059328e-01, -1.62793591e-03, 2.11395666e-01,
          1.43892393e-01, -1.48848938e-02, 2.65890118e-02,
          1.98908970e-02, -6.57389173e-04, -1.70920184e-03,
          -9.83838961e-02, -1.87569438e-03, -5.27496040e-02,
          -1.23238610e-02, 2.65890118e-02, -6.33508563e-02,
          6.65846765e-02, 7.07837474e-03, -2.39918754e-03,
          7.24896118e-02, 7.11839457e-05, -1.21378647e-02,
          -8.01949203e-03, -6.60092682e-02 ]
      - [ -5.18260412e-02, 1.66151822e-02, 1.50980745e-02,
          -5.69665292e-03, 8.70684683e-02, 3.76336686e-02,
          -1.60185605e-01, -3.96314934e-02, -3.76973562e-02,
          -8.72202367e-02, 3.24028581e-01, 1.48390666e-01,
          -7.13160401e-03, 1.06688291e-01, 3.85627709e-02,
          -1.51211232e-01, -1.23681344e-01, -8.63801464e-02,
          -1.00079097e-01, -1.21069320e-01, -8.00951421e-02,
          -4.48446750e-04, 1.22550011e-01, 3.82824093e-02,
          2.24744722e-01, 1.29839987e-01, -7.89426938e-02,
          -3.96332800e-01, -3.34636495e-02, -7.24918535e-03,
          2.62257140e-02, 2.98373491e-01, -1.01426970e-02,
          1.44602343e-01, 2.02849478e-01, -3.89661938e-01,
          -1.55460134e-01, 2.60980707e-02, 5.20487800e-02,
          4.07906435e-03, 3.66818346e-02, -2.38055047e-02,
